function [Y,Xf,Af] = nnmove_00(X,~,~)
%NNMOVE_00 neural network simulation function.
%
% Auto-generated by MATLAB, 09-Jan-2025 16:45:21.
% 
% [Y] = nnmove_00(X,~,~) takes these arguments:
% 
%   X = 1xTS cell, 1 inputs over TS timesteps
%   Each X{1,ts} = 10xQ matrix, input #1 at timestep ts.
% 
% and returns:
%   Y = 1xTS cell of 1 outputs over TS timesteps.
%   Each Y{1,ts} = 2xQ matrix, output #1 at timestep ts.
% 
% where Q is number of samples (or series) and TS is the number of timesteps.

%#ok<*RPMT0>

% ===== NEURAL NETWORK CONSTANTS =====

% Input 1
x1_step1.keep = [1 2 3 4 6 7 8 9 10];
x1_step2.xoffset = [-1;-1;-1;-1;-1;-1;-1;-1;-1];
x1_step2.gain = [1;1;1;1;1;1;1;1;1];
x1_step2.ymin = -1;

% Layer 1
b1 = [-1.9529311115473890759;1.7473594155950320506;1.5417877196426756914;-1.3362160236903186661;-1.1306443277379620849;0.92507263178560528161;-0.71950093583324858937;0.51392923988089178611;-0.30835754392853509387;-0.10278584797617836;-0.10278584797617836;-0.30835754392853509387;0.51392923988089178611;0.71950093583324858937;0.92507263178560528161;1.1306443277379620849;1.3362160236903186661;-1.5417877196426756914;-1.7473594155950320506;1.9529311115473890759];
IW1_1 = [0.51259547968210084079 -0.83448942201921527673 0.091940496271335228617 -0.76471721686990257183 0.65219647729462926211 0.76102296134138491812 -0.68442342918972187693 0.50437776033176229262 0.73090298969146838548;-0.12421637323745372827 0.77633075846160315425 0.72236791979756864723 0.96108189533959687001 0.77895278470340079124 -0.061794758951475473041 0.57262755634292272777 0.26249248451058271314 -0.86193752424105996024;-1.0166708366199341818 -0.66497884229209125451 0.72265988062133923453 1.0353602548602878208 -0.2691624206303004363 0.49788750319000063538 -0.033742664992356223574 0.64418467785730748609 0.086385613251630410936;0.89712365874809385513 0.017825140336845322203 0.40603503395117918062 -0.86768334694541959795 -0.84798305974869192525 0.16406869871101376068 -0.15846077248569459539 -0.84766617771903729484 0.77550687913837357268;0.73834371573144441658 -0.91769737018185526534 -0.34086028718507560553 -0.22755853190965605326 -0.48902420131832241568 -0.57069763806318751787 1.2367318423558826268 -0.39648273183242460638 -0.084301421826313269192;-0.60039885591666508624 -0.45669781103765183516 -0.88962773594381561182 -0.12610096374571772015 -0.95435692968739838093 0.088677231550959467743 -0.97181035919165403847 -0.60549915421211764066 0.45589898817312307644;0.064316927901785350685 -0.10515277185614615996 -0.20545787999541550994 -0.59582021497096071538 0.51486753640443994051 -0.48212827950495895646 -0.24958287707972989788 1.6682847449096831483 -0.24192896522401138859;-0.48529346664216133078 -0.81675274687059395973 -0.062907456924897811601 0.81388264865310411267 0.17150130629555629391 -0.64026860482694258891 0.92554602802269314576 0.17758497412367724166 0.95783837719989572967;0.85184719568605649087 0.7385268837146818921 -0.80186158848905864094 0.78140609771701796671 -0.054469827754523109098 -0.87765104232393909012 0.46594402978957349948 -0.47935938167062497328 0.26300048881812659873;0.5051212614467682771 0.36584617098216842823 0.7390259314795231127 0.94723122877732623959 -0.27199270335673442212 0.15345661755019676664 1.1354921638650266047 0.34101956659606258437 -0.69164797805108368944;-1.1742434061157465131 0.19585600090834953679 -0.59783693454790953759 0.47808627463280317649 0.25935307961030912294 1.027514369731379551 0.02328995882411788107 0.7533734788984922659 0.34582288740367406188;-0.68468788751869569253 -0.45785515288482098173 -0.53784553020994652073 1.2686302928570194481 -0.018891994575905263209 0.55420327204294161927 -0.17582608322623974328 0.93816695529038796053 0.13505638099231906391;1.0353993326739094893 0.42964911313637932366 -0.69528201374839848636 -0.46405969103083316574 -0.12129566164416172303 0.67504509542127699717 0.20581793324532121625 0.6912041953798623295 0.93166438844977372824;0.78440784659531070933 -0.18090229230967569407 -1.2184370902154137983 -0.092083920420022724596 -0.17192486468697623647 0.59719464677394951124 0.17646053352385662749 -1.1156233029047000205 -0.10438844268114576275;0.3233577902986464192 -0.9612591097492566572 -0.81254321956820851902 0.85198043833319236917 0.10764938986032560053 -0.65809208499716076446 0.1080666434940228543 0.96153613984382191315 -0.13549799896398334598;0.1880988500998534152 -0.051816088495897444366 0.9427213664022309203 -0.39082881087504101059 0.66672998367324254332 0.67303502694456396327 -0.80537043597021196195 -0.82622496207634810172 -0.71107584842717530549;0.46152276302932426777 -0.57185765857583281679 -1.1213894292118280482 0.1507026066065757508 1.1347973605972649924 -0.38598793783361939891 -0.55456455745122534839 0.43280122293480943751 -0.24915752380995984105;-0.50303984829371961585 -0.4357406998048959923 0.86486081606254505694 0.12972577939301394023 0.77821881534020309612 -0.68570950951689146891 -0.6153859781822558217 -1.065082327757113756 -0.13147451455375619433;-0.12373882809043140751 -0.40013535712928144372 0.39651206304674346814 0.71564188221399871459 -0.48324951872500776506 -0.49307641424249215589 0.41063289420972376442 0.99496809092265203756 -1.1549544933613893338;0.72109382872429428346 -0.76112140906837255638 0.24333056559997018331 0.78077378185272616751 0.15590882879161244157 0.30380533893814670732 0.35380708216147105372 0.95532547915099230718 -0.94414452566026285663];

% Layer 2
b2 = [-1.5708258360227485007;1.2217534280176931549;0.87268102001263814227;-0.52360861200758279654;-0.1745362040025275896;-0.1745362040025275896;0.52360861200758279654;0.87268102001263814227;-1.2217534280176931549;-1.5708258360227485007];
LW2_1 = [0.17084044087851268934 -0.0067543148043322318724 -0.075353748916122717527 0.58377583707725444473 0.42155404826851766709 0.41895463660612702883 -0.46989769773076650594 0.18355746935982880652 -0.64218300656953575256 0.099934631438284515781 0.2039321338928367644 -0.1924020749694775323 0.49893127291594130401 0.38316124482847613297 -0.005230456941056480652 -0.2320393760991661114 0.11838337051856979987 0.10243763800551636267 -0.65940451845470904324 -0.27227101763024913472;-0.1705666845762175976 -0.4016111952573143129 -0.31015743042606508384 0.30577500789109646195 -0.13902534738850050311 -0.058095390623381662487 0.25261531305095852318 -0.31898901423378794862 -0.53964821354124126174 0.46936631235091941239 -0.70553835084395288835 0.032758089714057733732 0.24225268455414700197 0.36870239863240039657 0.2373201230276654472 0.18942096652034340343 -0.25972759755977148366 -0.38585650207768523723 -0.62095494177514887202 0.0012681196665109040374;-0.20548950634948134897 -0.1336663233968240494 0.59863086318214908665 0.18067976299811877583 0.049115652420237423947 0.26851730117638050732 -0.53877113012984001461 -0.6748862584120038921 -0.21024609527461698977 0.39240866379634192773 -0.35458605200605991525 0.19629283314639123237 -0.32495329083785939872 -0.26684447346038608906 0.58221870151238308555 -0.27749277958931656274 0.43455236411326880752 -0.11226762232634893146 -0.059863314426300467952 -0.18942656995025869415;0.64415419123082284791 0.61779109908943419249 0.22983839244876352881 -0.24391565733859335574 0.49709296336902214497 0.17215020181142479117 0.1609549548264370411 0.4471809867423175433 -0.19599380574906943853 0.35472306231972505763 0.48389499039226008259 -0.12725243450339693285 -0.16062500635570947649 -0.010304438069928747654 0.22969407123788568303 -0.13980790640130985603 0.045765991972611087812 0.34196314560702423258 0.40764161734239873214 -0.50788936276102147893;0.01130961686054160649 0.50137939263561415171 0.19693174373473640304 -0.1692990460380693063 -0.49149664897608785763 0.5027028206819512679 -0.48972536349585410465 0.53746983672613424243 -0.54879636017315802654 0.15988236568096991785 -0.38087330013428588593 0.026823792897682448289 -0.096411873688634144863 -0.33251198065315135111 -0.33993969519541017421 0.27069179497034911996 -0.53856108595981366793 0.14485954447422894065 -0.1562235808555838823 0.09435059755696695305;-0.62711928253250881493 -0.049117635909040509301 0.10656767524700565264 -0.28615054134059003665 0.35873140934004205116 0.28094227648584041424 -0.19712276997127678446 -0.21670499172575288793 0.20978863663805863427 -0.28306659719774412975 -0.45457358962854732543 -0.33416159362362818364 -0.10105855881651625017 -0.060588777781514155385 0.25657938372587041354 -0.30074758993973521592 0.70438371830888069081 0.35054171645297182991 0.41778069953213148313 0.5281543303966275138;0.52150603768076597699 -0.6384470764230699702 -0.015589724726085905926 -0.59143844949900026275 0.26637903395390688521 0.091415215751514303233 0.31557793030889230712 0.12833561634888299152 0.11566702216664595526 -0.38794918284362372995 0.30064255496369635123 0.37788549637622481647 -0.51883632255654998922 -0.44555682719511890966 0.17430276284341278403 -0.21056823523670040177 -0.088116390339603778425 0.51902947044391012366 0.14381155408491541614 -0.071812209783103556071;0.50748174906591636546 0.34508455184104541713 -0.26373110838652880084 0.30574967882780590411 0.56150961082178985073 0.14643412597088442673 -0.36654312274135758543 -0.29369963393474113333 -0.35347866667830019072 -0.29427594002613377544 -0.061441149520375708259 0.23790674315128776395 0.1941594699733261431 0.10539376425770995149 0.5024720360293007948 0.55970756401252752532 -0.51500520331621746362 0.1839567758768728134 0.2828706572110459283 0.32391911766933595418;-0.34369620891530178186 -0.47797659455736590806 0.36095935651914473619 0.51204196329259243914 -0.1165885165248983224 -0.12566019231922542776 0.48825233835459019849 0.25457476360945946459 0.094743050724970981347 -0.18538613365869213712 0.4805904779844883401 0.23087933314301287147 -0.57676072817337564747 -0.21531328947241418215 0.24633539096017759151 0.29914793824939928113 0.4496761159762872051 -0.13908751285165807388 -0.54620294697933347017 -0.13839342333762866266;-0.64750077622744850459 -0.65368902470390743975 0.38797044951903597587 0.38635597160339685274 0.23156339142603352133 0.17998768274050352955 -0.014753613741931268649 0.041918767407559051619 0.43411929477893534957 0.26408224109539729652 -0.21832302599998584802 0.28181682576496086545 -0.55408396728536246645 0.4181357136742005487 0.070280112850931761304 -0.4796264706885617346 -0.16924141349819848967 0.10935825424396693195 0.094439351005267915817 0.28550041079338794869];

% Layer 3
b3 = [1.8889959867429886309;-1.690154303927936974;1.4913126211128857612;1.2924709382978341043;-1.0936292554827828916;0.89478757266773145673;0.6959458898526800219;-0.49710420703762858707;0.29826252422257715224;-0.099420841407525717415;-0.099420841407525717415;0.29826252422257715224;0.49710420703762858707;0.6959458898526800219;0.89478757266773145673;1.0936292554827828916;-1.2924709382978341043;1.4913126211128857612;-1.690154303927936974;-1.8889959867429886309];
LW3_2 = [-0.8773766029934610966 0.60398502363369876988 0.79114579953070096607 -0.045045265213993129771 0.34873408192391702753 -0.29827444112145523603 -0.94921344922603700933 -0.38827581512813869047 -0.73127450545848426966 0.093100420963094884796;0.57286486263464508895 0.6224212901764605288 -0.96383977614026483671 -0.31637170613824372456 0.016412797673331005338 0.52610985679175947816 0.1679259653263545371 0.59451154731951572074 -0.60389551005876185297 -0.89456771458216721715;-0.85206057889493491686 0.91490682739327822137 -0.35045515227375600986 -0.09524151583949554134 -0.55398672411143967675 -0.70538437478703952532 -0.93724770714006389039 0.051126140604893302588 -0.24201822647356743823 -0.35953576942439197106;-0.11794039125431104997 0.69457193287142504623 0.51923650868377235756 0.58753787372964105806 0.33628095279722913791 0.85936689043010694444 0.6063278849894353506 -0.79344494075166460689 -0.68064622986971634599 0.38091262404196118974;0.54161199483763455831 0.21184277623775507604 0.80494894264556471342 0.97003860685322618185 0.2629657422618387197 0.35705141505433102278 0.27739372554408964211 1.0354011645640563977 0.06755361391645338387 -0.53941096409176614301;-0.64390573362504155419 -0.74889259831430976533 0.55847391109158472933 -0.61140876236546148892 -0.67235278750467697417 -0.70243795220559879233 0.39645670261875415319 0.55208229069015524182 -0.63254214604472924766 0.31555926452373395108;-0.55468637900723927192 0.66281233797756600179 0.92676494024706879138 0.036787762632457123024 0.0059793913217846255542 -0.22412619135698297335 0.98652101117406687525 0.022733506686450556666 0.17727318899627114712 0.95164461088432183988;0.17007405607603814923 -0.93815375060779182537 0.29559583724055854548 0.54409614287886143291 0.91736499165963558688 -0.38431692122449284676 -0.039109651174685254593 0.45510095739428430006 0.33210973371879498606 -0.98368152192809255041;-0.47353566541248792721 -0.28745054932548236293 0.075184035892847764226 0.32064587899547319916 -0.72783961291353338474 0.7227651973341094882 0.76298366681600893191 1.0355897543520942161 -0.62702470028012458059 -0.23040258619225953418;0.15113294230226478887 -0.96777504421187554584 0.22151417607226278617 -0.032111360137432820583 0.96073679995321825675 -0.36840143100783367958 0.72769657729348247166 0.45687991321705861969 0.8032468012795125345 0.34140103281539196933;-0.20872744338534374164 -0.38696055491986952601 0.041215623990736485749 0.79988753204431806143 -0.6572042640296796856 0.91126102151567500709 0.60798456228814146129 0.84071891669389575696 -0.53227256568304293083 0.33376597583500416944;0.10536916200225127094 -0.52998567427267984087 -0.78634804184240048031 -0.3003957524727406958 -0.63743951582743973994 0.69414791605400405494 0.9895190789641596929 -0.65465186180626522283 -0.41110026745622396671 0.32069697266929031443;0.11135939960413163141 0.39480083552804662306 1.0013940253220994236 -0.24501727427183248031 -0.58250065765090042191 0.743242003388582817 -0.55469305633154153412 1.0331431282881191613 -0.26045945791930463775 -0.050890396137914996333;0.61932083665536874495 0.4416196282349982849 -0.60215033676058593581 -0.55330166987477935603 -0.92031516364155052656 0.36982492927143606476 0.75114738327822350161 -0.50247923249375903154 -0.48812156948148544 0.53129178555722256228;0.11904081150038171855 0.69652946622089051409 0.33821596255535790743 0.84665009938264057521 0.45191975398143685583 0.64445536339927467218 0.76425919492123639554 0.39189950573142107171 0.75590046108557940041 0.55602011795104411274;0.22411285671598635272 0.9252917261947177785 0.46014575819098485487 0.88503391280983345624 0.27175943868761098798 -0.48068983297062400917 0.77157805548749625046 -0.17386737530040546895 -0.26981948778136405354 0.81462526187764927599;-0.87475432939073516359 -1.0318704395697577691 -0.083815698332240395896 -0.11208285306663678949 1.07403681814585239 0.26287293438569614423 -0.27296839306986458995 0.59754646352248441676 -0.20861432181873815206 0.14496806037966539216;0.58897227742715030363 -0.57453723471400963696 -0.38276343658556943872 0.90580073300355190558 0.29501181956098709858 -0.74445179082410628535 0.60050953341968493771 -0.72231259969839967106 -0.62374261086079718641 0.1081626803831638034;-0.34016668217234752314 0.021962722914005243513 0.39467323105738788547 -0.83372330047812925891 0.43561724409413676851 0.94479994836037584083 0.80943120654664768576 -0.86249466403016772365 -0.0023958287847144770118 -0.34606013150632508601;-0.50830462004752430261 -0.88970566886053736866 0.48141960961927304785 0.060017180544050766078 -0.87738748004169220263 0.31615395130303652893 -0.84919822754235541051 -0.67513119843317703772 -0.18627807320044256767 -0.44898527270708371573];

% Layer 4
b4 = [-0.57025357281709787571;0.51272674406101392819];
LW4_3 = [-0.78110375563376766017 -0.83667113291413941489 0.24011204862629709211 -0.43559461399161647499 0.14916397746338527774 -0.91261234946151126302 -0.31363983829632924305 -0.38058155549215322289 0.95204278463180402881 -0.49648006076714312762 0.85576406645510494364 0.41300206564784081031 0.19909239412399060143 0.17753103125596392253 0.096250718557990833091 0.60069172302469486802 0.40045121597849253625 -0.13024965517603392939 0.68623535477362995749 -0.81595533224637706304;-0.78546737576577485562 0.57724501547661355438 0.79237221601262897153 -0.38808957288403322927 -0.61660030153916833839 0.78930794833459505533 0.28404254522652694348 0.52334952363907527584 0.54107851224479541763 0.098261878751750186822 -0.065821546648732409679 0.78528060379391106949 -0.49537602992825391368 0.38222815893393358166 0.24827113270759437746 -0.9743145967759709869 0.65534960164551470108 -0.65533645505903681538 0.78170812492279395656 0.67185493164396503651];

% Output 1
y1_step1.ymin = -1;
y1_step1.gain = [1;1];
y1_step1.xoffset = [-1;-1];

% ===== SIMULATION ========

% Format Input Arguments
isCellX = iscell(X);
if ~isCellX
  X = {X};
end

% Dimensions
TS = size(X,2); % timesteps
if ~isempty(X)
  Q = size(X{1},2); % samples/series
else
  Q = 0;
end

% Allocate Outputs
Y = cell(1,TS);

% Time loop
for ts=1:TS

    % Input 1
    temp = removeconstantrows_apply(X{1,ts},x1_step1);
    Xp1 = mapminmax_apply(temp,x1_step2);
    
    % Layer 1
    a1 = tansig_apply(repmat(b1,1,Q) + IW1_1*Xp1);
    
    % Layer 2
    a2 = tansig_apply(repmat(b2,1,Q) + LW2_1*a1);
    
    % Layer 3
    a3 = tansig_apply(repmat(b3,1,Q) + LW3_2*a2);
    
    % Layer 4
    a4 = repmat(b4,1,Q) + LW4_3*a3;
    
    % Output 1
    Y{1,ts} = mapminmax_reverse(a4,y1_step1);
end

% Final Delay States
Xf = cell(1,0);
Af = cell(4,0);

% Format Output Arguments
if ~isCellX
  Y = cell2mat(Y);
end
end

% ===== MODULE FUNCTIONS ========

% Map Minimum and Maximum Input Processing Function
function y = mapminmax_apply(x,settings)
  y = bsxfun(@minus,x,settings.xoffset);
  y = bsxfun(@times,y,settings.gain);
  y = bsxfun(@plus,y,settings.ymin);
end

% Remove Constants Input Processing Function
function y = removeconstantrows_apply(x,settings)
  y = x(settings.keep,:);
end

% Sigmoid Symmetric Transfer Function
function a = tansig_apply(n,~)
  a = 2 ./ (1 + exp(-2*n)) - 1;
end

% Map Minimum and Maximum Output Reverse-Processing Function
function x = mapminmax_reverse(y,settings)
  x = bsxfun(@minus,y,settings.ymin);
  x = bsxfun(@rdivide,x,settings.gain);
  x = bsxfun(@plus,x,settings.xoffset);
end
