function [Y,Xf,Af] = nnmove_00(X,~,~)
%NNMOVE_00 neural network simulation function.
%
% Auto-generated by MATLAB, 27-Dec-2024 16:16:54.
% 
% [Y] = nnmove_00(X,~,~) takes these arguments:
% 
%   X = 1xTS cell, 1 inputs over TS timesteps
%   Each X{1,ts} = 10xQ matrix, input #1 at timestep ts.
% 
% and returns:
%   Y = 1xTS cell of 1 outputs over TS timesteps.
%   Each Y{1,ts} = 2xQ matrix, output #1 at timestep ts.
% 
% where Q is number of samples (or series) and TS is the number of timesteps.

%#ok<*RPMT0>

% ===== NEURAL NETWORK CONSTANTS =====

% Input 1
x1_step1.keep = [1 2 3 4 6 7 8 9 10];
x1_step2.xoffset = [-1;-1;-1;-1;-1;-1;-1;-1;-1];
x1_step2.gain = [1;1;1;1;1;1;1;1;1];
x1_step2.ymin = -1;

% Layer 1
b1 = [1.9529311115473890759;1.7473594155950320506;1.5417877196426756914;1.3362160236903186661;-1.1306443277379620849;0.92507263178560528161;0.71950093583324858937;0.51392923988089178611;0.30835754392853509387;-0.10278584797617836;-0.10278584797617836;0.30835754392853509387;-0.51392923988089178611;-0.71950093583324858937;0.92507263178560528161;1.1306443277379620849;-1.3362160236903186661;-1.5417877196426756914;1.7473594155950320506;-1.9529311115473890759];
IW1_1 = [-0.81825088001949697336 0.20910448477478171814 0.23207668378825349609 -0.9275181179216213101 0.18161923962131240606 -0.38773223937898121383 0.9357705099151738537 -0.78519569888918816503 0.71485013924433449262;-1.2631948531981558315 -0.26774938149398380682 0.11677341154689442615 0.60811139667434910283 0.28283280557617052065 0.67930459963202738383 0.82424078601464734195 0.72345417875737039193 0.13764265516404683432;-1.0635317006667790452 -0.90988644088799663923 -0.37821550786084828788 -0.023540348058903270284 0.42363600467706702402 0.98666770644074008878 0.022012452908351853864 0.10697452743024954414 0.73921381849083611648;-0.95278016519308650345 -0.34836183260693337482 0.46794658360702778843 -0.78961818592875943068 0.72723257676776997815 -0.64979345590433090774 0.7315487684036294791 -0.10857361899808420924 0.6665376544836676409;0.96759179263594141673 0.31000621939098665925 0.7713511616129781201 0.83912869999063099957 0.11151095674506840416 -0.2634527322548368411 -0.15847284300972686033 -1.163235458111276488 0.14970035055690431025;-0.026509128253943851916 0.48849523795523092096 0.80713374840679019684 0.9094943112168020205 -0.58601957631469114851 -0.65214257915129547616 -0.96822275660926016005 -0.60840019828316349582 -0.14017778018607854329;-0.50597684804761178246 0.65122693859905766978 -0.77460860986143975637 -0.75265013962244620149 -0.47869844093997915291 0.82179054040445320695 -0.65874373402812913536 0.79133447849721172407 -0.051813563387166715335;-0.38116244442339430876 -0.85894996330129791406 0.64380458631130133007 -0.38682722463399515922 0.4090409589801398127 0.51835499949090879657 0.56277497737584725179 0.79923008339306622627 -0.98754727375483708496;-0.75204074981948654255 -0.8545876831752442504 -0.70925881903918874816 -0.77617794161303999001 0.45270427262558343706 0.57599710248801716528 0.77287767521803452109 -0.45618770480029557923 -0.26531738730220510991;1.0286249164015954793 -0.19597170825131238203 -0.91464710753212374872 0.64166277618625688905 -1.1052291516621532974 0.22652286031553756085 -0.34577681317687775087 0.21000911926980694866 -0.18068156816910310725;-0.10286700892810024532 -0.021067912493921203687 0.26266185674080810841 1.011635999002797659 0.65533353569198948829 0.8833028257894189883 0.91485914636610410344 -0.5500839167292255194 -0.60105765475378458707;0.33890202017351050978 -0.15730625850825757928 0.055153896472395103068 0.75617914101169425578 0.74713553460524717575 0.20951090073529643476 0.84286433229453727733 -0.90792195190684554795 -0.98114339655498861159;-0.9064033619015737786 -0.46605754913324809463 -0.92267457082940129709 0.60469073095955927499 0.46061765501234303022 0.92653719928296018882 0.31638179804371063808 0.29296055479330945781 -0.54920019533242381282;-0.26325531234272997461 -0.15836986168171707234 -0.69175194050651289679 0.46363192805246372652 -0.82474184469619604698 0.90012235743349311434 0.72196418217348456992 0.68463449590354119589 0.73871794340787233502;0.80200537100031565885 0.086591136368509874499 -0.81025216411599365607 0.2493097927962477367 -0.70331861348877255935 0.025449577404404444964 -0.79806005676859659292 -0.73074103275380597466 -0.88225749074212544976;1.0676655584223591067 0.56356524397255636227 -0.38913198238082702396 0.9582041266890185538 0.81884623359661157238 -0.35179452050078091618 -0.14718059381117981621 -0.22212520334440874481 -0.64928828527389226277;-0.9110534509842020956 0.88003795334878187617 -0.62901212322794763931 0.47562811000028498709 -0.84683374896797791731 0.06977005407843460405 0.13966630305806279622 0.8179499240837937446 0.4207521515324083583;-0.34475836968092371526 -0.20512648972732880348 -1.1351931919162130402 -0.38995355399332121138 -0.65243448621208199878 -0.70098514465063532786 0.33572874291178395056 -1.0555881255147945286 0.26124001911501704143;0.32665736120908639428 -0.26319719306331523789 0.72561392355724008141 -0.71434114678143922905 0.68915323655762128485 0.66710376187832975958 0.8311007221464189465 -0.85260575431810148306 -0.51336020211677213521;-0.51302563951672375264 0.026511716398925352228 -0.15610526401446189748 0.081960892440264096481 -1.1674215755625270141 -0.30245401562203050316 0.35233951226795640066 1.0935359424871384793 0.86292511327918297592];

% Layer 2
b2 = [-1.5708258360227485007;-1.2217534280176931549;-0.87268102001263814227;0.52360861200758279654;0.1745362040025275896;0.1745362040025275896;0.52360861200758279654;-0.87268102001263814227;1.2217534280176931549;-1.5708258360227485007];
LW2_1 = [0.61047368735016827035 0.29733567152417528234 -0.43848741296058885153 0.038876943091785139128 0.41937416589290665847 0.076042209477428943099 0.601377742197142795 0.36384970278839828817 0.4173305653408357907 0.39899852011527747742 -0.28683801359261962283 0.0017465018857639809553 -0.1062923754383759134 0.20884562579034407492 -0.53570579857888089848 -0.13822163289455313695 0.40093592714475173588 -0.37452253016011133324 0.24344254742313845008 -0.00065626938523289117446;0.43029898867307470045 -0.28603877406267752548 0.48901449202276869865 -0.48388295897813621282 0.11975513695208402087 0.2895587488030499923 -0.14823937335882386712 0.45211971869372419297 -0.40568492148348606063 -0.03292602893677917808 0.12089062096598006402 0.4963916063114262589 0.1768677225457552793 0.41769647354355893265 -0.50335961521935601581 -0.40781247206284043649 -0.12029145029947387047 0.02246425334005253821 -0.51741331820461655688 0.2604968075078450962;0.23632960602388711213 -0.20352511075750090441 0.31113109948776723757 -0.14159276765416062283 -0.35643786990760911726 0.12676649083042285104 0.094786787906220915101 -0.57019110106531234461 0.20850401432858220452 -0.13866250731337473323 -0.38983987179329221417 -0.59174144771952574828 -0.39199391526837179534 0.55433411409859245644 -0.14068822113050144518 -0.51858561680233816737 0.24626864287638111639 -0.30189193319614310296 -0.31515575248312072132 -0.45884015168205261048;-0.043982066379531725708 -0.37585496108443045005 -0.34309148872120887042 0.35009707623953378874 -0.46811335538775322718 -0.41305322131921912154 -0.052765201152841362253 0.4174659636101347715 0.36196651531186480044 -0.47244733185399634401 0.19710537668921224164 -0.20177480811901085667 -0.3336364536149548643 0.40363492269998096917 -0.47913332347448295279 0.075054830566026256577 0.34951108354794996336 0.040023698555229123008 0.48385109528636766063 -0.46487590222061386802;-0.15979034302139222268 -0.48287514144227344781 0.40427362568417080091 0.62783448704676259045 0.068531153222587445906 0.077292264155839465745 -0.35839600780411795533 -0.0045265632035967114793 -0.43820071857308090513 0.16579187706759346277 0.16139821748950541891 -0.056910833612083301658 0.32130811479793930374 -0.48660056820729552518 -0.68320305571629669217 -0.19905463921639895974 0.33677018035181427447 0.30518853676993029644 -0.45446185562208663011 -0.061215525909929631443;0.06061575015938867883 0.35701888118097330205 0.10089156631313141166 -0.39808415653588924421 -0.14558215164617122062 0.23765634029594115417 -0.50624679279721529479 0.65418228121674515396 0.0021720398098227563372 0.080153718715709393328 0.22912267924431642396 0.33159067839868833216 0.29291161315578206903 -0.081912880522734779487 -0.62850602151943602003 0.47248803504812497689 0.69086926704836837398 -0.0078020802941355721014 -0.062711755356548548601 -0.21177202009170945085;0.071027783452809523101 -0.12734087366866939095 0.1338687242267350419 0.10267356253463756632 0.41634424435404571163 0.32416710333325066129 0.6187851056908446612 0.41268019376767961504 -0.27157795827475017525 -0.12804522871769818959 -0.42751747296134978704 -0.12570075300775063187 -0.63499954296036509316 0.2384711518622440185 0.12248585914419483911 0.20250720537706329294 0.015422674471169491375 -0.56413095854533257256 0.33083341745007588397 0.59446146135278754574;-0.47738905205389764452 0.14485600879765661575 -0.37914172942827056856 -0.32190373740118788382 0.309912489613065667 -0.34375864158019836525 -0.058810663790573508569 -0.4857014037633935466 -0.51759277060918051916 0.30665951146601894139 0.0067127431546822559014 0.12336017629152887243 0.52255106635654868796 -0.48281933353674050258 0.39304614518778802079 0.25159569634911460589 0.52026764269923853057 0.025190788727761426191 0.0012766226222685453286 0.38102483215588628385;0.03586606214311358759 0.41989903090690389176 -0.3502284331412318652 0.40731235462561687921 0.34620155652336570551 -0.24502915818786868973 0.43908904673422199938 0.38615312543665220035 0.37649961150896604778 0.38232087764445416012 0.44720853382066444448 -0.24273597092724816249 -0.46149205894740585876 0.40238244219299590387 0.23993132831495789237 0.23575267452820078407 0.46130709324047103337 -0.038671911007570627938 0.30962658681853844067 -0.36671783155883813654;-0.53279071352529983052 0.37729189321250466982 0.26113071690553818494 0.38761186858771018438 -0.042368928168345268426 0.18965103304410241281 -0.36226532499433633516 -0.29712283440842679472 -0.48906936305974246793 -0.4224467453819926166 -0.42688018934761029488 -0.52743456084544182438 0.076561472262103857922 -0.23687572379548244017 -0.11362598314743523054 0.50696727303610844562 0.23867695118056034276 -0.055804896585765477457 0.5155277408021725627 -0.17249206945604567132];

% Layer 3
b3 = [1.8889959867429886309;1.690154303927936974;-1.4913126211128857612;-1.2924709382978341043;-1.0936292554827828916;0.89478757266773145673;-0.6959458898526800219;-0.49710420703762858707;0.29826252422257715224;0.099420841407525717415;-0.099420841407525717415;-0.29826252422257715224;0.49710420703762858707;-0.6959458898526800219;-0.89478757266773145673;1.0936292554827828916;-1.2924709382978341043;-1.4913126211128857612;1.690154303927936974;1.8889959867429886309];
LW3_2 = [-0.56978754182636903725 0.97184140897536008818 -0.22960166363191611416 -0.84000779102105338492 -0.35052079366453459119 0.67067361471417308305 0.081519859219397583505 -0.81934497570069075856 0.29360946485590549981 -0.45165931765178751744;-0.60369348694947133627 0.32473637182154957426 -0.71178309847137766209 0.095217763718815920382 0.051960326979274329418 -0.76136502261954741577 0.59479729695933536426 0.87571457408462916039 -0.79310353324169147182 0.50065464278471327741;0.7671857465746828586 -0.42337544627682188736 -1.0228040387223238383 0.23068056915676707352 -0.3915464004698296363 -0.07926519676204443754 -0.28021235127877403004 -0.10888709450593367367 1.1750329630997651265 0.26546956961530643326;0.05913095429182539664 -0.14837214993230657401 -1.0008113678298553584 -0.4729372071079744333 -0.43717666869976518074 0.24760254471725026693 1.099801867030450131 -0.53564866687377554744 -0.47404093261710350538 -0.58640700098640585747;0.90524662852010395753 0.23404753438932202059 0.74882827132912366253 0.8701166063146908991 -0.53023154835896502135 0.3819417316559098885 0.07516026013704975306 -0.3553261658727827621 -0.22627716913786363739 0.87525845052635475874;-0.68940470263669439976 -0.62971093600965510895 0.16718820283407004323 0.10390597873660382955 -0.9198280147463657741 0.6410115690370535857 -0.70336937414628597498 0.65233931403053047049 0.63562910576850195632 0.27652117067389597738;0.71392464139647049404 -0.071112597247726713756 -0.88584605733910026792 0.96027025629761542103 -0.010468725782990148318 -0.75677831920153382228 0.51255284938350798019 -0.23583274798711367781 -0.5092621049884910045 -0.44296706623965981242;0.5493309210513321883 -0.19527000649016051925 -0.85056358556737921006 -0.65417775217359841466 -0.13171334927150196714 0.64588930148483847393 0.88387905787568310512 -0.74535339288780355638 0.039097292925196501512 0.55150720161904787098;-0.47982786426677953573 -0.52378401911207062014 1.0960922172652705076 0.37877542689878396232 0.13757334735943033133 0.29281593806579586659 -0.12263744030025304499 0.26558899669143976041 -0.85193785213362360764 -0.89598505949664442038;-0.53656444473550068963 0.82010496986630787575 -0.35895339519778202142 0.58950390603591162897 -0.80240712593365581817 0.25910069265485580203 -0.19857435426021127767 -0.45882363741122428324 0.92302322498536149009 -0.56440830509386630265;-0.93529037781006063579 0.018990547524732896006 0.36229158691072860243 -0.5501419635800448571 -0.32145022788059179897 -1.0811393140716532013 0.37190167826128356365 -0.28204762658024512545 0.68151345226439252745 0.55204253383909906994;-0.24372067465507776807 0.73020402441599774335 -0.91747357645402760618 0.88803320105208982671 -0.42864339983584359706 0.07224064249110349889 0.0073592552797044448118 -0.78675036812885257298 0.61439643142292144073 -0.39985031418840982775;0.14400511493176901268 -0.35980575594130059791 -0.96958749058662185849 0.047477555805886445528 1.120507032030555461 -0.30338643999305420218 -0.52367411547342290756 -0.89969462735800920239 -0.18628120213472035283 -0.098940051569989306834;-0.29764627037111551777 0.86494546630539148602 -0.44815027783015898288 0.16211644913373915444 -0.8656154529442522394 -0.14699793661629895203 -0.038038847582674409353 -1.0669318013279631696 -0.75832764803646046659 0.136790757187234574;-0.71261959128838736621 0.79678474424621670291 -0.79412591768165219364 -0.067824277421988515835 0.59246604990714413219 0.27308003037186578954 -0.67872356595734673057 0.72638766547989175315 0.18345685587352411616 0.58551452658613212243;0.73369885566884252004 -0.66928595897293929884 0.68751656209626976768 -0.58992857346790283923 -0.19891905901323975181 0.73523354957903053197 -0.32722602349343382633 0.37540141491095863069 0.44784646551983198215 0.85594782164574656491;-0.0060678914609898293789 -0.44195134654301565513 0.92577497321982449296 -0.075825363334767748036 0.070047895999911582998 -0.96065832190299482729 -0.77395703407076832381 0.45222678898850338092 -0.85411047520137850508 -0.22213702270770641078;-0.40500319995978650844 0.076421779737674472299 0.019100559017368186343 0.80476513935564664148 -0.78730910554776889487 -0.43149060562885321879 -0.79711395460821410364 -0.74531895724392605018 -0.8014091328074869347 -0.33352484679306587667;0.87503076360513221132 -0.14166523447127613022 -0.30869832076255676601 0.90637927501487480786 0.52963839270358592515 -0.72140918463954828432 -0.57587136469353028545 0.637742244713178974 -0.51091380981180867238 0.25576543837992732344;0.34498860741580167355 -0.87065965924744659343 0.92575686582487937137 -0.22023096768582442473 -0.50744081223564840855 0.91341436856879942852 -0.21193555235177508056 0.70495235262882782745 -0.33135714981757335984 -0.20547252249557371173];

% Layer 4
b4 = [-0.35693611094992294674;0.92303233391433403554];
LW4_3 = [-0.38566230776740528796 0.069134954264259862455 -0.18577186908201470672 0.312357586708682744 -0.55008829261451719361 0.037101484079708590968 -0.98811012715800372597 -0.53829482526450300739 -0.62615434781824208521 -0.78701819262374073105 0.51228644541082957176 0.10329629376807569763 0.42757690551477933738 0.087169923222633727278 0.085614600896064985136 -0.32871100381483775443 -0.97252196392658118995 -0.73680263452376237865 0.40100486811858204739 -0.86460144584903164677;0.8538674971004047709 -0.37441289748945649762 -0.72910349339853142148 -0.20114907538442117207 0.45594813132145239898 0.55248925289016459494 -0.58469720177817752216 0.82704595939736802457 -0.48793850923846204815 0.22890001425464001628 0.019375466830410026375 -0.3208941695705593844 0.20963381320822072063 0.13554555455997441271 -0.191571113431512563 0.13508494584656172144 -0.40432728284124630491 0.25871689728359958949 -0.9871737123444557227 -0.34994934670276167665];

% Output 1
y1_step1.ymin = -1;
y1_step1.gain = [1;1];
y1_step1.xoffset = [-1;-1];

% ===== SIMULATION ========

% Format Input Arguments
isCellX = iscell(X);
if ~isCellX
  X = {X};
end

% Dimensions
TS = size(X,2); % timesteps
if ~isempty(X)
  Q = size(X{1},2); % samples/series
else
  Q = 0;
end

% Allocate Outputs
Y = cell(1,TS);

% Time loop
for ts=1:TS

    % Input 1
    temp = removeconstantrows_apply(X{1,ts},x1_step1);
    Xp1 = mapminmax_apply(temp,x1_step2);
    
    % Layer 1
    a1 = tansig_apply(repmat(b1,1,Q) + IW1_1*Xp1);
    
    % Layer 2
    a2 = tansig_apply(repmat(b2,1,Q) + LW2_1*a1);
    
    % Layer 3
    a3 = tansig_apply(repmat(b3,1,Q) + LW3_2*a2);
    
    % Layer 4
    a4 = repmat(b4,1,Q) + LW4_3*a3;
    
    % Output 1
    Y{1,ts} = mapminmax_reverse(a4,y1_step1);
end

% Final Delay States
Xf = cell(1,0);
Af = cell(4,0);

% Format Output Arguments
if ~isCellX
  Y = cell2mat(Y);
end
end

% ===== MODULE FUNCTIONS ========

% Map Minimum and Maximum Input Processing Function
function y = mapminmax_apply(x,settings)
  y = bsxfun(@minus,x,settings.xoffset);
  y = bsxfun(@times,y,settings.gain);
  y = bsxfun(@plus,y,settings.ymin);
end

% Remove Constants Input Processing Function
function y = removeconstantrows_apply(x,settings)
  y = x(settings.keep,:);
end

% Sigmoid Symmetric Transfer Function
function a = tansig_apply(n,~)
  a = 2 ./ (1 + exp(-2*n)) - 1;
end

% Map Minimum and Maximum Output Reverse-Processing Function
function x = mapminmax_reverse(y,settings)
  x = bsxfun(@minus,y,settings.ymin);
  x = bsxfun(@rdivide,x,settings.gain);
  x = bsxfun(@plus,x,settings.xoffset);
end
