function [Y,Xf,Af] = nnmove_00(X,~,~)
%NNMOVE_00 neural network simulation function.
%
% Auto-generated by MATLAB, 09-Jan-2025 19:22:22.
% 
% [Y] = nnmove_00(X,~,~) takes these arguments:
% 
%   X = 1xTS cell, 1 inputs over TS timesteps
%   Each X{1,ts} = 10xQ matrix, input #1 at timestep ts.
% 
% and returns:
%   Y = 1xTS cell of 1 outputs over TS timesteps.
%   Each Y{1,ts} = 2xQ matrix, output #1 at timestep ts.
% 
% where Q is number of samples (or series) and TS is the number of timesteps.

%#ok<*RPMT0>

% ===== NEURAL NETWORK CONSTANTS =====

% Input 1
x1_step1.keep = [1 2 3 4 6 7 8 9 10];
x1_step2.xoffset = [-1;-1;-1;-1;-1;-1;-1;-1;-1];
x1_step2.gain = [1;1;1;1;1;1;1;1;1];
x1_step2.ymin = -1;

% Layer 1
b1 = [-1.9529311115473890759;1.7473594155950320506;1.5417877196426756914;-1.3362160236903186661;-1.1306443277379620849;0.92507263178560528161;0.71950093583324858937;-0.51392923988089178611;-0.30835754392853509387;0.10278584797617836;0.10278584797617836;0.30835754392853509387;0.51392923988089178611;0.71950093583324858937;-0.92507263178560528161;1.1306443277379620849;-1.3362160236903186661;-1.5417877196426756914;-1.7473594155950320506;1.9529311115473890759];
IW1_1 = [1.0520915785858298008 -0.39708304661169302463 -0.67402005132631559459 0.31952082674810422525 0.97674504085392743757 -0.32393299026641736438 0.79201935114035781904 -0.30799891869362511221 -0.46027194025209916539;-0.251370706097094887 0.35515768835223626709 -0.93029796039636802885 -0.96575116690788542773 -0.12349652602953382907 0.48791914350578396986 -0.713030119493587633 0.16039861439119654229 -1.0193281856812568265;-0.38870515821962886571 1.0552636058852866707 0.042927821516535576152 0.21969174512344977201 -0.046241717453784587921 -0.84624114608554634742 0.55291145981331035753 -0.083260572394657339501 -1.2117152754306543816;0.050294870038071010088 0.88863718508091971149 -0.21613181096525407865 -0.32791954897737679575 -0.89836064263017179066 -0.84333194170303604764 -0.83101513151947659086 0.38715080118582473334 0.71327246945309674686;0.19355918568756230735 -0.83269729924536894927 -0.46661792948480240728 0.36716674531038867579 -0.50117836906304014111 0.36859780930868957238 -0.65302265923241931134 -0.67565205665081351505 1.208535422387503111;-0.22516048698145352258 -0.73010619435373169672 -0.024561279218725071138 -0.53609798818055087732 -0.91245973606997587968 0.66102337777975739286 0.86301067432171807425 0.077877247297302831797 0.96010226100667517279;-0.82832570202985056351 0.74541788162972288934 -0.7937809423480848281 0.71218351561099479952 0.060315131170211935818 -0.58217321410303346507 0.81673351587540121699 0.013854874396251720334 -0.65197080873626200859;0.1947445349934158465 0.44706725996840096515 1.216218185510491212 -0.34676545399819691529 0.16021669653357178964 -0.35440763926579449405 1.1187692858302236143 -0.022305462847931317033 0.75716311950810477605;0.84919602216823975027 -0.042484608212728196264 0.65558192124729963712 -0.13388766892111056417 -0.44452090103119940023 -1.3607811854647358096 0.51014332034039389097 0.3689513483911581182 0.4445131788338387846;-0.92618429838960880662 0.41890724584260802255 -0.75508786752559498012 -0.023558451204830851283 -0.67913705703195503816 0.071258348048843858646 0.76502741021231079888 0.90507804499417188193 -0.58239892052785047216;0.80187568039510959128 -1.2354240372721585484 -0.68028676585179481684 0.7610944447323123585 0.13262494353314011053 -0.3645325969046639969 0.47363002307537949154 0.40737360798002270057 -0.24870843388394717199;0.55532903386063936502 -0.48331697618138691475 0.15665150108189029865 0.52222330814209483307 0.99014602767637927005 -0.86655419702300329199 -0.60268874732168953301 -0.93816242440755992504 0.0031018636291380344804;0.37278899300620960133 0.83740323283034823199 -0.3203186469129059577 -0.47290823357617700617 0.91689142401468826105 -0.14129259226324383802 -0.55745704867160605911 0.19747090921293211641 1.1987790808505853768;0.87967551203036298269 -0.67623793215845162674 -0.821666717407081304 -0.39344890726460862718 -0.80530971717199073545 -0.69477307698431056693 0.38735200852310575081 0.65736324674697887982 -0.19867953144993591441;-0.53235455310476864632 -0.80730416194412313313 -0.47121319039074122115 -0.48117744960242475605 -0.011276606524050077421 -0.95089921204726879367 0.97813668513705320784 0.63220131575726368212 -0.4055349377784744358;0.22202141335942066069 -0.47511609542104515924 -0.7190489397751509415 0.78675753736980036379 0.68223151204706400375 -0.9178617103996933313 0.75735943575442432607 0.44105715113623394918 0.57171464297231389118;-0.99353257702341835067 -0.52562187075120647695 0.50664783007719882413 0.22515381834528191973 1.1391232358748628606 0.11085587714012826166 -0.7761367941861223585 0.029523371788115787551 0.57447158625623806483;-0.12509327142302467673 0.37651177596100032785 -0.85290634605644721766 0.15011774827810134281 -0.77911252786078111221 -0.072097119355608585423 -0.21379350567222663027 1.0096247463961411928 1.1087298100410063473;-0.92957779112898819562 -1.1109717879429221732 -0.35073531675597086066 0.36959621940192100009 0.49938014329239355238 -0.53064277329808362538 0.33533172679936634752 -0.58230137714350560518 -0.68808834758233861084;0.97411191483860160023 0.30556433288745105115 -0.63009043371813322487 0.17774921562290088572 -0.8006825766512376541 -0.8560175466611134043 0.67699169349630283765 0.66005595399807126533 -0.27425783444180096282];

% Layer 2
b2 = [-1.5708258360227485007;1.2217534280176931549;-0.87268102001263814227;0.52360861200758279654;-0.1745362040025275896;0.1745362040025275896;0.52360861200758279654;0.87268102001263814227;-1.2217534280176931549;1.5708258360227485007];
LW2_1 = [0.26095616200637400395 0.17256105909397684295 0.39872206743375210314 -0.52085381388399065727 0.33678227292368639878 -0.14209598913155108146 -0.038945152901040010207 0.49525774119178356258 -0.11007565397059435042 0.39450981594418255138 0.37504495623511402425 0.091422566967349960798 -0.43763430772195760499 0.54416359667546776446 0.27894009576958317398 -0.24965802408641746268 0.27668580779463025632 0.33388917410214802306 0.56248533538202072357 -0.33161292249864326998;-0.17685142602816850133 0.25140769500372722733 -0.16666326009103521466 0.54459548401081525615 0.50256829385234846885 -0.46564464590234649899 -0.20486017089675209735 0.39709433765242890813 -0.15706558369992570934 -0.44530095302148425818 -0.25286085178024797493 0.37078234855716696305 0.35190157717272463334 0.37590884890267595164 0.55409495593144852954 0.033985831708553855546 -0.42506647125829455369 -0.22808261991000822189 0.18145641087153957516 0.34098458454758717728;0.07564935324343095846 -0.51731125080778228575 -0.34559000539715445388 -0.37131937044649737656 -0.59516221705133176556 0.59098280557622151488 0.1467308972169277248 -0.58588647051068687421 0.44152664399325242117 0.17014002478355813586 0.13129840552719765356 -0.12958326071396303325 0.17520774960588633706 0.032142108889803358562 -0.033961135603599382216 0.44803160456436225134 -0.14427481378230952447 0.32029721182597847839 0.044458386042791578352 -0.50165202263105701519;-0.13628165452283286241 -0.54130769057883920681 -0.2678186432020777108 -0.37191683465428165833 -0.38411181262114074686 -0.079831351900251340536 -0.31965481342189960845 -0.47307452543757333441 0.33823540675311752901 -0.4920080190962011768 -0.39707964404564494165 -0.44309645919906970324 -0.18203236505518555211 0.19984674621300146935 0.32268803346146140987 -0.39504564545676607024 -0.18356300148906237735 -0.22403105528475875108 0.49643958607771110358 0.30312048234320593254;0.21204986709946960222 -0.46012572733901641042 -0.23312553469176469645 -0.11402856519866881591 0.37857944712146396338 0.46834008565823959103 -0.48024701410479631036 -0.31176044555264004199 0.26512119681250967407 -0.17004273327053284759 0.48008968004234825466 0.28828301784619603243 -0.49387606626282154476 -0.3420629024957802522 0.188805267356697698 -0.17815645325137405286 -0.47671145246440277399 0.52984237449713877943 0.23223104889283824326 -0.22348065851129778059;0.21124362474289753999 0.3623849100856030292 0.33882689416899502977 -0.45381456624775423636 -0.59614073829127078863 0.33915193053405878754 0.43441232501451726433 -0.026652699579395987967 -0.39843544479378401046 0.046355020658477505413 -0.33240900981988341645 0.44723944038446833416 -0.016989675542886224779 0.32273130100810609733 -0.45268778592235919822 -0.099304408283724499018 0.30514699125103411648 -0.53439649724643289996 0.37022954809045904856 0.067447208497628557966;0.29341906493183850246 0.09482567653955359388 -0.50511880475544734814 -0.31299740008657256363 -0.082622495029559692159 -0.29357239119893646651 0.29750654626748557208 -0.17675211475055024879 0.51578937189362261684 0.4911524430212441672 -0.37044106145461480617 0.50548620180409009617 0.53093455889889407118 -0.004679533198931423027 -0.16493736467218669817 -0.26554546049799715446 -0.31938481039004573692 -0.1952144475293147996 -0.49152539816609835954 0.38101853941335583897;0.095241494491164147007 0.54540742606640524315 -0.30065322295873664338 -0.50501455471897194194 0.32513934278033407299 0.26916882848391066041 0.14888106380022683717 0.52355538751144281573 -0.21237773957201250274 0.54068967349185181881 -0.18376377322804193781 0.057119307144886312388 0.047851479243746594672 -0.27424462734787496965 -0.51137154576780186055 0.21895502271969399799 0.32353569536165743825 -0.55316440017531887108 -0.24199824322539556509 -0.33230335867290333729;-0.17587587435670196112 0.03073495480218274914 -0.068135178184726211126 0.26447608228249519513 -0.50133102340856228185 0.45584796203835370454 0.45479077758604075088 -0.51917712534326876384 0.2697192493043344963 -0.50537622584669672499 -0.1614229306571413336 0.34580303114624255656 -0.50647319746855756772 -0.14786349895343001148 0.24891854013427106018 0.31443504391440774137 -0.31167170528105181404 -0.4513305947643899696 0.41653539313244475339 -0.1953908994701812063;0.32570814959235261377 -0.1410750145259076771 -0.56787760890553129478 0.30875048331110432898 -0.16864491940172490758 0.47064559366370711802 -0.51582252683944118665 -0.076063919426334350438 -0.086451237333568256571 0.43213831426924620427 0.50733238249483891824 -0.27470777107310623277 0.18433301728428322375 -0.27213216066655265823 -0.44371373354806431522 -0.14850067818532577957 -0.38115255272688264299 -0.19524509419520416631 0.53059132140803288991 0.28796738169246671735];

% Layer 3
b3 = [1.8889959867429886309;1.690154303927936974;1.4913126211128857612;1.2924709382978341043;1.0936292554827828916;0.89478757266773145673;-0.6959458898526800219;-0.49710420703762858707;0.29826252422257715224;0.099420841407525717415;0.099420841407525717415;-0.29826252422257715224;0.49710420703762858707;0.6959458898526800219;-0.89478757266773145673;-1.0936292554827828916;1.2924709382978341043;-1.4913126211128857612;-1.690154303927936974;1.8889959867429886309];
LW3_2 = [-0.20196852332257117513 -0.89356700578707282112 -0.34465545172599632018 0.82729462132763131876 0.86092133352425803672 0.53743345716480539487 0.24858654287780429515 0.47598565612330573371 -0.37287162899821585382 -0.68442505766556149815;-0.76588345325813422804 -0.69361425939221654779 0.82180247410510842698 0.34216041619765125148 0.038118979974122391141 -0.23091476018865536579 0.47961253861223057671 0.83068071030677326227 0.8115929535151162888 0.27327301603707038202;-0.26555422233007225374 0.6919293142961483456 -1.0854733715422628659 -0.2904097847636523122 0.36602422061928324704 0.43608442650575618416 -0.6409826359555247377 -0.16119012561874909717 -0.95645748349645809405 0.28396313578875920225;-1.3238389230341049974 0.49796696046572297423 0.12783688419595978791 -0.35549162586206983772 -0.51803765994826378449 -0.77152037120643679469 0.0082456282895896574475 0.042436812883699631671 -0.13044408277088473391 0.73659856946766666397;-0.17793625139377197697 0.34175208407052626303 -0.58744018574345002737 -0.072142657803736201516 -0.25007471439953543602 0.31340283015967507207 -1.0681043964649059586 1.0200862374831631829 0.077130572437631758631 -0.84936961972649915875;-0.6616612865917211872 0.3057365087855139496 -0.49879031835174419962 -1.0078308487242157998 -0.52629208728688381402 0.93409160235567012531 0.010037345680241682028 0.42643994354967507121 -0.19599635391812239571 -0.63454214862893321136;1.1829698163491455531 -0.062741735991379485315 -0.78203201125409083083 -0.066873670470678339695 -0.18793286499971373349 0.15131119667354084313 0.63762884837419808726 -0.56783168737989409003 0.84151192139643515855 0.23140018229169889707;0.34778645753391662643 0.56493420536853689029 -1.136202952572954672 -0.46794046374809783462 -0.17061083770930821069 0.41493527707720190278 -0.13045994977696373507 1.1538480738968854844 0.13463456663970921334 -0.22468500099212929122;-0.69449319643879592334 0.95129418658715292345 -0.25690663530265861469 -0.29320432039837462934 0.67097280567421691 0.63633156575552718426 -0.34600696972692007725 -0.59415706923969446862 -0.73081600522718204171 -0.40877471641417056913;-0.73567962212121207344 -0.48282937122188329671 -0.6961805141515394757 0.039497246763973238581 -0.51179965308834596271 0.33161120302090335565 -0.97653282083660764012 -0.30185010755131008731 -0.22772107063734498 0.91609944358872485992;0.0081262631844076192722 0.67517915416475227097 -0.49796749945172452678 0.021353581055994448612 0.78324483100643982336 0.79721469077903905909 0.82009474524178305188 -0.88271128268454934762 -0.2255096509463908605 0.33516022244749021919;-0.70455237865805542263 -0.80978185562036941736 0.71955160491833491943 -0.22100994692606459879 -0.20556163356024143019 -0.7949472657005012266 -0.45770769912013647973 -0.67948154244892944309 0.16835726388138508303 -0.68980635549746971424;0.4249022492147923602 0.51470856033688838771 -0.41450459447642412636 0.49269304694616827822 -0.086881735854883124226 -0.71325180621808548231 0.98424155500083643222 -0.64803993297211615054 0.72100656238217442073 -0.53241364153676906668;0.30842722917254955517 0.71106452633383021578 -0.55106950228716211626 0.19455798630398976612 -0.61597046771342278682 -0.16586806766766240551 -0.8757438595813736848 0.88711130480215127925 0.80652249898883821011 -0.12137201570242031612;-0.78992517302267373225 -0.49912714397023627555 0.51617992961732994672 0.62427229425498187432 0.44578324321222112525 0.70738280368770678486 0.65707488188318463607 -0.81305941365128842069 -0.37131060274593280512 -0.3305160069830032632;-0.60678067953155589986 0.70436670675506996009 0.26203817706515875052 -0.30663047257564862713 0.44086999220116607212 -0.55457484180283045383 -1.1261392053126380031 -0.72164338634666036487 -0.028014163380849662482 -0.49964112021298473509;0.51460333295098303896 0.36998234737157753571 -0.78005342910077557494 0.64321604532944742783 0.15771471547624063558 -0.15855103645621085318 0.23672842446573072461 -0.87640283807867314092 -1.047985864069519879 0.41470840549491350124;-0.8138204624312092017 0.44122292929202855394 0.17032004052284921425 -0.9915899962568177628 -0.9385183020307101831 -0.3922568505636525038 0.012940731583023522278 -0.57974841735665205711 0.48210057469210171321 -0.30933168041021197325;-0.25909168462014559031 -0.61762489568690415176 -0.062395260193964359463 0.97683979204946513875 0.34337036559748845832 0.87311114418177848684 -0.60747549950278467712 -0.41665866546766910927 -0.041380775364173963404 0.85850923387781541418;0.20445536404148645371 0.51847320513725014823 0.1830244793757053734 -0.42850258047540018547 -0.9018335676005398982 0.82251942720758874916 0.22497153063693767217 -0.62041188138514247186 -0.82196293469823966671 0.66301493656773990981];

% Layer 4
b4 = [-0.62151924310712658439;0.66658014175813984359];
LW4_3 = [-0.81772169371166114615 0.51860991433201863998 -0.10322656400202023796 -0.58473029278223731531 0.092007610837262276959 0.65101225225281322828 -0.31410046693441961985 0.97289660283328993629 -0.22306519588122930564 0.44191970575834194079 0.44692646128485202794 -0.71524127087188538177 -0.10621902034654162605 0.10418839412439662162 0.11864591563091986259 0.98104458791332538325 -0.75202240524929164778 -0.21759589363555931207 0.15800112803507193604 0.93363438992439795605;-0.80049834564431487927 0.12642947650524183345 -0.84251067677243551834 -0.87475252984023876834 -0.12664957286617406496 0.42259712361521062363 -0.1596988761308468785 0.51037810787918580502 -0.23679091553898024003 -0.7787073826866652837 0.62782841946124690047 0.43361076043439750194 0.63761497179595316709 -0.15382450743304443286 0.31207973377390407776 0.33122707368428105923 -0.66515533581247443529 -0.84901207974373615883 -0.67071996688858837032 -0.95381793760713451391];

% Output 1
y1_step1.ymin = -1;
y1_step1.gain = [1;1];
y1_step1.xoffset = [-1;-1];

% ===== SIMULATION ========

% Format Input Arguments
isCellX = iscell(X);
if ~isCellX
  X = {X};
end

% Dimensions
TS = size(X,2); % timesteps
if ~isempty(X)
  Q = size(X{1},2); % samples/series
else
  Q = 0;
end

% Allocate Outputs
Y = cell(1,TS);

% Time loop
for ts=1:TS

    % Input 1
    temp = removeconstantrows_apply(X{1,ts},x1_step1);
    Xp1 = mapminmax_apply(temp,x1_step2);
    
    % Layer 1
    a1 = tansig_apply(repmat(b1,1,Q) + IW1_1*Xp1);
    
    % Layer 2
    a2 = tansig_apply(repmat(b2,1,Q) + LW2_1*a1);
    
    % Layer 3
    a3 = tansig_apply(repmat(b3,1,Q) + LW3_2*a2);
    
    % Layer 4
    a4 = repmat(b4,1,Q) + LW4_3*a3;
    
    % Output 1
    Y{1,ts} = mapminmax_reverse(a4,y1_step1);
end

% Final Delay States
Xf = cell(1,0);
Af = cell(4,0);

% Format Output Arguments
if ~isCellX
  Y = cell2mat(Y);
end
end

% ===== MODULE FUNCTIONS ========

% Map Minimum and Maximum Input Processing Function
function y = mapminmax_apply(x,settings)
  y = bsxfun(@minus,x,settings.xoffset);
  y = bsxfun(@times,y,settings.gain);
  y = bsxfun(@plus,y,settings.ymin);
end

% Remove Constants Input Processing Function
function y = removeconstantrows_apply(x,settings)
  y = x(settings.keep,:);
end

% Sigmoid Symmetric Transfer Function
function a = tansig_apply(n,~)
  a = 2 ./ (1 + exp(-2*n)) - 1;
end

% Map Minimum and Maximum Output Reverse-Processing Function
function x = mapminmax_reverse(y,settings)
  x = bsxfun(@minus,y,settings.ymin);
  x = bsxfun(@rdivide,x,settings.gain);
  x = bsxfun(@plus,x,settings.xoffset);
end
