function [Y,Xf,Af] = nnmove_00(X,~,~)
%NNMOVE_00 neural network simulation function.
%
% Auto-generated by MATLAB, 18-Dec-2024 12:39:38.
% 
% [Y] = nnmove_00(X,~,~) takes these arguments:
% 
%   X = 1xTS cell, 1 inputs over TS timesteps
%   Each X{1,ts} = 10xQ matrix, input #1 at timestep ts.
% 
% and returns:
%   Y = 1xTS cell of 1 outputs over TS timesteps.
%   Each Y{1,ts} = 2xQ matrix, output #1 at timestep ts.
% 
% where Q is number of samples (or series) and TS is the number of timesteps.

%#ok<*RPMT0>

% ===== NEURAL NETWORK CONSTANTS =====

% Input 1
x1_step1.keep = [1 2 3 4 6 7 8 9 10];
x1_step2.xoffset = [-1;-1;-1;-1;-1;-1;-1;-1;-1];
x1_step2.gain = [1;1;1;1;1;1;1;1;1];
x1_step2.ymin = -1;

% Layer 1
b1 = [1.9529311115473890759;1.7473594155950320506;-1.5417877196426756914;-1.3362160236903186661;-1.1306443277379620849;0.92507263178560528161;0.71950093583324858937;0.51392923988089178611;0.30835754392853509387;0.10278584797617836;-0.10278584797617836;-0.30835754392853509387;-0.51392923988089178611;0.71950093583324858937;-0.92507263178560528161;-1.1306443277379620849;-1.3362160236903186661;1.5417877196426756914;-1.7473594155950320506;1.9529311115473890759];
IW1_1 = [-0.50691404936427708616 0.49571062685331218622 -0.41873405974867605739 -0.76592623460051845186 0.086280843234107840178 -1.1521071167095005006 -0.34490715520460601962 1.013526451103814896 -0.26129644603074297926;-0.07257433682174151135 0.86377988108880376927 0.45120458835194704461 -0.48689091499312303624 -0.95965361099907553477 0.49400072361463043258 0.9761023724938826529 0.54763160063214100237 -0.45195230481066889228;0.7395564328183897862 0.97476999208592041146 -0.061930413470679575305 0.73399292865288490173 -0.047862373647113966302 0.70909350023956441156 1.0840967942626724696 0.30531533030971513831 0.025514056606491773704;0.26583950722098337316 0.18032610208543042862 -0.17362877322882480646 0.68178544895324777464 -0.084112071896170842455 -1.099443369264088366 0.89109022286058581219 -0.46384368496421085615 0.99535426770734647395;0.50827752453573848967 0.62805713836168697295 -0.19901384347174691514 0.082472143815931445165 -0.33252753051925615368 -0.79326859437261731944 0.23067710806310595673 1.1565078417015901557 -0.99204738474666986914;-0.88514863668802246099 -1.0277818377658964888 0.55935296761218500361 0.73710259506360353843 0.033736437022237282524 -0.67129710226022065722 0.69621455800296316863 -0.2099354805817932601 -0.37061404436861433709;-0.5826214550781884105 0.95464017388500088668 0.60160331746772854888 0.9430887853077416505 -0.32276976198390422423 0.91114491538111519464 -0.10581715789044378317 0.4278324014908515549 0.42802813649368443016;-0.59393079539612270157 0.10684708997180898671 -0.71002730573275329995 0.46194895714540451515 0.82604030089551094829 0.69065825503923106155 -0.52098413555224776239 0.7857115295921897058 -0.82711289496172346603;-0.69754649006408064871 0.42529263782846943309 -0.47687219747500803058 0.50874367558135302758 0.67223302774610504962 0.71602931256407686966 -0.010371320961141771919 -0.87742150489468384578 -0.96213122342818990784;-0.62867613124698018545 0.84407079595758294221 -0.099909646828606521463 -0.68697398609338145015 0.82450687467981220724 -0.080936769961803739504 -1.066287217510238472 -0.6120469974849489514 0.16249073906209907103;-0.60167814384627160695 -0.59600499456344058213 -0.14930958560346679898 -0.40180206280764707572 -0.70691429232795011117 0.93209232288663590449 -0.094817569099561099799 1.238275842922886838 0.04606283138532205057;-1.3735365930632097431 -0.073680650206840669902 0.53638155841899437526 -0.569338041944578932 -0.69532060563441022705 -0.2699498445285125614 -0.14607516361600086929 0.85548591567688581083 -0.022793968634699318665;-0.77592645044888108874 1.0175144523935883978 0.34854547479861397452 0.29420187190730362481 0.98180418818893278043 -0.039824761221240914666 0.17793806153367680567 -0.12042451979497274805 -0.9781688123301994775;1.1360938660705703906 -0.8066850251431522123 -0.40814318507631019983 0.17136411038473259305 0.86917434836555951261 0.31185281833410971597 0.37141314407693859501 -0.79921223224076076708 0.21711578102052439543;-0.85369117608920142004 0.060114046422996489372 -0.52161212730142136884 -0.047151057511060627536 0.74818787442709644431 -0.81608770804143948574 0.85925907209040941481 -0.19111558431192388063 -0.89810890652239883103;-0.27875276291355088887 -0.4359347911918852736 0.96731789191158679131 -1.1118658501754556944 0.78271578863881097199 -0.61747968592436774937 -0.56073728677690115596 -0.22847952474733990158 -0.11702026458345557436;-0.23078783834722765844 -0.20701658453783985947 0.97261972377607852636 0.59518315241492902867 -0.34796051340501843452 0.57370345097591257666 0.85498325264488117536 -0.21413364219219693796 -1.0911128146427948593;1.0263281939949790988 -0.11729913345257596269 -0.36167248608017038558 0.79531422915709615307 0.53132783078515199993 0.50538529957856503927 0.49805307670383136553 0.80963065865820937894 -0.73635408073452912614;-0.68789400754152996154 -0.51337351966639022116 0.66713370079994049888 -0.336070620756244276 -0.70325644149785793147 -0.50891793716486599664 -0.19029007608056017209 -0.60097186067211416649 -1.1697153387103134126;0.86909466693762083001 -0.15820433480716819541 -0.00031677921349344069675 -0.66805767385662606639 -0.033280583389611019529 0.51370445619422966388 0.48037479721748238548 1.1491366969365188755 -0.87807155702611094927];

% Layer 2
b2 = [1.5708258360227485007;1.2217534280176931549;0.87268102001263814227;-0.52360861200758279654;0.1745362040025275896;0.1745362040025275896;0.52360861200758279654;0.87268102001263814227;-1.2217534280176931549;-1.5708258360227485007];
LW2_1 = [-0.12515380047557064791 -0.3777104984201504756 0.56476667184134643485 -0.062182354621343943757 0.00037004113241106777708 0.35396201295850293622 0.54974268095045386584 -0.13968591268362204327 0.26949653916897059469 0.51198189316387354708 0.20735575591155669395 -0.3806465408658086802 -0.55065820310259216974 -0.028889922405940671873 -0.098865205482966456163 -0.42136238128860670216 0.3400809037891771025 0.15359888837030336028 0.41600839226256408621 0.46150441730188496159;-0.56881678974238114588 -0.083172498995219626416 -0.41819431190372602369 0.21801611832536621494 -0.22969908233607053138 0.32365995402368991085 0.22404004303271410348 0.017532315041652521415 -0.16783429216343973001 0.06270586200745213723 -0.098457644405769609297 -0.30908041274755160277 -0.61964843347970355314 0.67200930034437122984 -0.2763535180491848986 0.15821774927935855493 -0.081397719963345008254 0.427219243081797595 -0.42606706191979276666 -0.51149050323606992663;-0.36291391336897144138 0.18221748270927587421 -0.10231926854315726017 0.48915057775555903508 -0.21381787901300775001 -0.43339453681461331813 0.29270847869789545781 0.40740267990630152362 0.1666377710717363847 -0.47249405896129581528 -0.50501094450253491974 -0.50127780296442880914 0.26548713815483582223 -0.40657454401252907106 -0.29229639518255323694 -0.16231599478584882168 -0.19146082463816069263 -0.28493099027842294646 0.42448456390428751517 0.40584255700297022784;0.51010364377178873951 -0.25931755233019976314 0.34668765884621971507 0.36401991149435486417 0.50916537222059421453 -0.10634616719155000342 -0.53986306439584197392 0.33922261457779084859 0.19589107582528567097 -0.24309142154217974752 0.5086364467931820954 -0.36011262080450417988 0.38958557481724515048 0.24373330231045686745 0.42358936957120246758 0.22076231796225434523 0.35155919773793714578 -0.18183426303065769458 0.29498497326599149027 0.20341404933173418135;-0.51880364557080071997 0.17847928297311560497 0.14276967634422446651 0.44771562840166190256 0.256550135256998324 0.19254083952140282898 -0.13371737041620507247 0.26277143180616058249 0.1625873479643346331 0.26112948456900403338 0.52264619973379200513 -0.38328979001134866333 0.37400115691734903134 0.16719091061642121776 0.36282826679195706587 0.47760551305471021788 -0.30553246881381307398 0.39555254278299839532 0.49196521651682706411 -0.47086523606352981286;0.57119719043570715833 0.47930770860909671649 0.36635834147799589688 0.59465887501394598669 0.148975217030278273 -0.25559257848712380046 -0.3083070411205315331 0.44933816966536371806 0.44639146092127462984 -0.1313235871724643955 0.21627240557456381409 -0.14223428969687476608 -0.49016222262407327381 -0.26437998915074178985 0.34732387251761731584 0.25118906723544681681 0.24660447100426866052 -0.3400044254407600941 -0.0018070491822547349835 -0.29215350585652882787;0.015590513427570375227 0.60991034529227761141 -0.70569063809576781932 -0.098146290773448399691 0.19101747584781714195 -0.072251069049644733866 0.27486134820098495624 0.3410433344092761998 -0.022824904702233032167 0.030504361039934591027 0.21354468787537850272 0.19262373880047536923 -0.36839181058188191775 0.0054144632727820066198 0.11672379540295084455 -0.6050029838685316852 -0.61431673139817888352 0.58361233111553156849 0.025304916866279832804 -0.1894216628510836109;0.30636281179875080038 -0.47778205904937348647 -0.11754026736926584396 -0.40960153788845077294 -0.075849182511461332723 0.31478199634370751525 0.22814269302066791933 -0.093161104451075851807 -0.39067075696851172317 0.35162045818463499858 0.084702621732937521948 -0.38176987425437314272 -0.73703263111802508334 -0.084280062993205881461 0.20803141033310171282 0.15680005474728392345 0.35569583157736217593 0.60941355093663218678 0.32236339493369237097 -0.38602130861304589926;-0.17442889141514794638 0.19684767863233365581 -0.37431095138211134543 0.45659714662381617467 -0.35961276390190449748 -0.24504621511600910289 -0.45442700453603174227 -0.39573953774086906288 0.44619466896594178751 0.17892261711527332468 -0.21677442325731552386 0.044180752908070983209 -0.42593607149127737932 0.023783333612703523585 0.50538924923397987587 0.13223679689990799901 0.23463935074749078802 0.31915599579414610787 -0.58561359078038732751 -0.51229822476152242494;-0.49420222600842234062 -0.27496435292603566003 -0.051141442786465027281 -0.51798262599706745846 -0.29828925115323756678 -0.2898206006501171661 0.45171461053529965435 0.10734739922855839056 0.46543668121139070148 0.052207764177868390409 0.43672678157753497263 -0.44305909586697167502 -0.40118491364449992975 -0.37490041359642256591 -0.26982160162245544255 -0.09848525229052433605 0.28561022876104186219 -0.044686752776393105779 -0.49080470432585826535 0.416339344755183971];

% Layer 3
b3 = [-1.8889959867429886309;-1.690154303927936974;1.4913126211128857612;-1.2924709382978341043;-1.0936292554827828916;-0.89478757266773145673;-0.6959458898526800219;-0.49710420703762858707;-0.29826252422257715224;-0.099420841407525717415;0.099420841407525717415;0.29826252422257715224;-0.49710420703762858707;0.6959458898526800219;-0.89478757266773145673;1.0936292554827828916;-1.2924709382978341043;1.4913126211128857612;-1.690154303927936974;1.8889959867429886309];
LW3_2 = [0.34571307849838645021 -0.48795273232502367478 0.73919688891937851416 -0.51452489265470846558 0.69861463960319569733 -0.14433285049433755565 0.21669427211598596417 0.52104927894661856591 0.88761954847622714926 -0.88562459465502074707;0.43791621698511201677 0.79011017036792474677 0.15594877729515208009 0.23179508626387865244 1.0553837498185654198 0.23525005966834117155 1.0743942344107193509 -0.54304678893951641161 -0.23578458736299751086 0.014749672955472421798;-0.2822427521401128514 -0.76615507115847514275 0.0056748821486440718942 -0.11269628118442091835 -0.6534485798028133452 0.56600543689981852591 -0.74043543738062866932 0.93426112450144960242 0.43589264203742961179 0.72833408236938201874;0.99398356112708663446 0.14304580432072128149 0.5264365674922643068 0.053826743396193504898 0.91961385769458514616 -0.24300177138155459877 -0.24750334453008621116 0.76089083828693748757 -0.71904813704587522416 0.46671740188103438829;0.50318354863846626035 0.62990112588455371423 -0.31934985304692797836 -0.47014051449259536275 1.0443662813624667862 0.054612502597941599281 -0.083621217217809615252 -0.51691377398589410941 1.0553116569749254605 -0.33728591398435819881;0.6820236588289603219 0.71244315744399877577 -0.60691957140490548905 -0.26875338774967438837 -0.68797463217903087607 -0.80684455868152349378 0.17811326864458251751 0.66547866714205317074 -0.41163837237498773769 -0.62181587762202950032;0.0043343190449419847013 -0.31676650436002012912 -0.83877605452271963848 0.22475622653471466483 -0.99288254959320587645 0.78477660035547269768 -0.53621518959905078994 0.3426031001869028203 0.77400681364617462954 0.32894554440046419597;0.82273172617966716658 0.62050226011752274147 0.66742678777913932997 -0.40917488260932644017 -0.82198410007795497112 -0.77927614217387020101 -0.48607672516906313964 0.048001664604441822426 0.38579138101463122945 -0.47241273214281920279;0.6409472058717891052 0.080141882244671808211 0.98316045560590037411 0.48301091162261056144 -0.9800907595454692034 0.57175332864652539389 0.42793265491791609989 -0.50757533972326884797 -0.26274399958010818956 -0.39229136619660787133;0.11349114045718398935 -0.44906359613714685874 0.18720519136065519317 1.0119071530279610815 0.048718683899465473064 1.1234880949270271699 -0.12129195093505845682 -0.24959457574907378818 0.88709740152339500163 0.40769549491437379052;0.0080400554816034437017 0.69587580015459471472 -0.80404317304214723006 -0.44087393152179976674 -0.56684628402147452242 0.64683646498191171847 -0.4882187150338192505 -0.62384272982836230792 0.42563660217026821897 -0.83350279787876069282;0.16536789243479518841 -0.75363567846403467509 -0.68598075333295316369 0.44935768167786627192 0.63166834828937457047 -0.76151654458695305916 0.99358946563063887947 -0.2842170595613249251 0.39475257458308032898 -0.31266489088891696868;-0.38268345735777409278 -0.37957748259285845061 0.26401934282372929719 -0.95502038419374890577 0.6992663341606991656 -0.68001366352023773221 0.68311539939065857308 0.49223368374683340587 0.034394549382947399441 0.79655155169140612337;0.76028904770131533475 0.66276864108210153947 0.76424882153825679509 -0.50918122677754451555 -0.70145765499978096624 -0.77332175792740243114 -0.33090663869825037713 0.0045135842064450365854 -0.15284472841523114028 0.69621252310370029814;-0.53014831485883051609 0.65620431790673305894 -0.71893226949162347683 -0.072292226518165650373 -0.035697516727727411634 0.32586760779735524096 0.69798013686257809329 0.45612765813833094919 -0.75935542404245359727 0.97736448610763226874;0.85595405215955588929 0.69049777470048245842 0.13781955074297214114 -0.78998531318513232069 0.6589040725437410595 -0.59340972851913054154 -0.7522355066809559565 0.2389785675044395763 -0.55359234933653500565 -0.0081922428785127995865;-0.79479654235553220953 -0.87530509349573470956 0.78113860216653974167 0.92827476113197071594 0.19771009372029441087 0.28463375406051327765 -0.030716080187983926808 0.19131573550422537044 -0.70814624286631600025 0.1986247590637514604;0.08504611476451306995 -0.29442905922934931029 -0.67795336915025616875 -0.88095920384910919587 0.9504466103897550866 -0.45514937773418506772 -0.10148600146718575465 -0.72140463116468456217 -0.77137823045895836938 -0.049157865580415634199;-0.081229894583224673821 -1.0603161226474044909 -0.44448043254258079449 0.036071861732873314321 0.51263703787047343319 0.57378371817704754143 -0.30421445718241663103 -0.37466493929886940384 -0.89051304307152834294 -0.78779122086257880042;0.77271013634364693612 -0.90314058438883448865 -0.85489847830952803154 0.63613756143712052449 0.30603859866372828957 -0.090248135155921699324 -0.22670575400373718655 0.84411912087613549804 0.38686194448632021947 -0.068120919514942548934];

% Layer 4
b4 = [-0.11681804857241884221;-0.93242416654355508854];
LW4_3 = [0.20104147037946562548 -0.74916103544961054617 0.39122028284030840872 0.83014258606439006449 -0.88230610891404270824 -0.10833516407190768582 0.40632427452726838091 -0.29742933502259205625 0.77540217968804703297 -0.2424917883849708744 0.64267090731013865046 0.99128869537876451723 0.4369568668516161658 -0.87601151408139021903 0.95577199379514921063 0.47036713428135312753 -0.15363916674148647701 0.79109667703971320307 -0.79774563292010558513 -0.19208984500665748918;-0.33956538711752171089 0.9179751077515629909 0.76060498537215970316 -0.5075682461342345686 -0.13990133666998327833 0.75794415591529795684 0.38882212233730695239 -0.57809408237995318913 -0.46795208655257192198 0.92909548315178547284 0.15771178017136278093 -0.4793417422175458853 -0.49260709078015518791 -0.81489938537457784484 0.27683633479342595329 0.33739164796632015175 0.72687123314241608441 -0.25567772052978710029 0.78452988136659729257 -0.95734920568010117847];

% Output 1
y1_step1.ymin = -1;
y1_step1.gain = [1;1];
y1_step1.xoffset = [-1;-1];

% ===== SIMULATION ========

% Format Input Arguments
isCellX = iscell(X);
if ~isCellX
  X = {X};
end

% Dimensions
TS = size(X,2); % timesteps
if ~isempty(X)
  Q = size(X{1},2); % samples/series
else
  Q = 0;
end

% Allocate Outputs
Y = cell(1,TS);

% Time loop
for ts=1:TS

    % Input 1
    temp = removeconstantrows_apply(X{1,ts},x1_step1);
    Xp1 = mapminmax_apply(temp,x1_step2);
    
    % Layer 1
    a1 = tansig_apply(repmat(b1,1,Q) + IW1_1*Xp1);
    
    % Layer 2
    a2 = tansig_apply(repmat(b2,1,Q) + LW2_1*a1);
    
    % Layer 3
    a3 = tansig_apply(repmat(b3,1,Q) + LW3_2*a2);
    
    % Layer 4
    a4 = repmat(b4,1,Q) + LW4_3*a3;
    
    % Output 1
    Y{1,ts} = mapminmax_reverse(a4,y1_step1);
end

% Final Delay States
Xf = cell(1,0);
Af = cell(4,0);

% Format Output Arguments
if ~isCellX
  Y = cell2mat(Y);
end
end

% ===== MODULE FUNCTIONS ========

% Map Minimum and Maximum Input Processing Function
function y = mapminmax_apply(x,settings)
  y = bsxfun(@minus,x,settings.xoffset);
  y = bsxfun(@times,y,settings.gain);
  y = bsxfun(@plus,y,settings.ymin);
end

% Remove Constants Input Processing Function
function y = removeconstantrows_apply(x,settings)
  y = x(settings.keep,:);
end

% Sigmoid Symmetric Transfer Function
function a = tansig_apply(n,~)
  a = 2 ./ (1 + exp(-2*n)) - 1;
end

% Map Minimum and Maximum Output Reverse-Processing Function
function x = mapminmax_reverse(y,settings)
  x = bsxfun(@minus,y,settings.ymin);
  x = bsxfun(@rdivide,x,settings.gain);
  x = bsxfun(@plus,x,settings.xoffset);
end
