function [Y,Xf,Af] = nnmove_00(X,~,~)
%NNMOVE_00 neural network simulation function.
%
% Auto-generated by MATLAB, 09-Jan-2025 14:00:25.
% 
% [Y] = nnmove_00(X,~,~) takes these arguments:
% 
%   X = 1xTS cell, 1 inputs over TS timesteps
%   Each X{1,ts} = 10xQ matrix, input #1 at timestep ts.
% 
% and returns:
%   Y = 1xTS cell of 1 outputs over TS timesteps.
%   Each Y{1,ts} = 2xQ matrix, output #1 at timestep ts.
% 
% where Q is number of samples (or series) and TS is the number of timesteps.

%#ok<*RPMT0>

% ===== NEURAL NETWORK CONSTANTS =====

% Input 1
x1_step1.keep = [1 2 3 4 6 7 8 9 10];
x1_step2.xoffset = [-1;-1;-1;-1;-1;-1;-1;-1;-1];
x1_step2.gain = [1;1;1;1;1;1;1;1;1];
x1_step2.ymin = -1;

% Layer 1
b1 = [-1.9529311115473890759;-1.7473594155950320506;1.5417877196426756914;-1.3362160236903186661;-1.1306443277379620849;0.92507263178560528161;-0.71950093583324858937;0.51392923988089178611;0.30835754392853509387;-0.10278584797617836;-0.10278584797617836;0.30835754392853509387;-0.51392923988089178611;-0.71950093583324858937;-0.92507263178560528161;-1.1306443277379620849;-1.3362160236903186661;1.5417877196426756914;-1.7473594155950320506;-1.9529311115473890759];
IW1_1 = [0.87337942834349702181 0.3261861901882522341 1.0705940373840867608 0.69418803843295007194 -0.35558337315030152936 0.37209476272807773256 0.96677822976951965916 -0.25609068482959423951 0.22703658783871610849;0.93796411981377325606 0.11329081213188585409 1.04030141849529012 -0.081959924294452451976 0.14365462442138132726 0.78991189443728559993 0.79383848424446246117 -0.73445747535148953045 -0.13483020249983818095;-1.0298309426467584515 0.30164067877089717484 0.61973528839399627532 0.23732684865648553951 -0.4894322474425465419 0.65875844410148209906 0.65798851021828963503 -0.081006041891557356571 -1.0530848613667109781;0.90175031976583330806 0.8206005599700522124 0.030003621742059560784 0.6050648962600959635 -0.15283197799666814465 0.54618331243647344486 -0.67072006261314087716 0.15087171653365252788 -1.0798591392866270233;0.76436203311144546024 0.28071441269984648281 -0.57043850578917243421 0.40905594889422314253 -0.50117791286625246183 0.31671843870874055726 0.59664427908464412464 -0.97829286535240289613 0.99681090140024875002;-0.49552070896949351742 -0.68529663816880903582 1.1394055464974395253 0.69626241092545115841 0.56510980150477052586 -0.43427091734461259476 0.70475470059816325286 -0.2371722822002649278 -0.5048476305009153009;0.045291800057125825019 0.094398191531255379316 0.89004226355859117348 0.047354546680942570525 -1.3213561738379580035 -0.54623045414781312701 -0.047446937717822074143 -0.92711536809749761634 -0.32002486134909052806;-0.74455645716574658799 -0.59149051561735310756 0.36969668013149686869 -0.65763193836411526494 0.64634104725122121238 -0.035071329982674849524 0.4334820088219983325 -0.92706012841988238993 -0.93500015807144809532;-0.4755950628019811055 0.40183907943184071776 0.20816344974379527577 -0.54760077668301576637 -0.67822467308242373463 -0.090688349688143155003 -1.0664354863515028704 -0.82152259167296182163 -0.89592348187255677061;0.062597074809932470862 -1.2146354008200366259 -0.57587099543278785774 -0.61590844586770643332 -0.92675197079162763281 0.063511519158431423149 -0.31572934903209798341 0.22313114353860943884 0.78187997876191206448;-0.73194103180307912293 0.12568631942418648229 -0.82610092740261820143 -0.60856849181640293445 -0.13888781662510049641 -0.24292684630823990766 -0.71193328177824077851 0.089223937706263550806 1.2714140407466434368;0.73803569494115850436 1.2348384821177635917 0.034511390842413662561 0.80216443421920047285 -0.68628335629529191309 -0.56335458455545928125 0.13694603170069533093 0.14160124498250858949 0.52211108554856600072;-0.79670189866650831245 0.62955828869863839081 -0.46484406086785545753 0.91806163277195063088 -0.71770853283439361991 0.84342803748248618145 -0.30025747125081869715 -0.20135926690500602354 -0.60561432762477640512;-0.71473564403419942437 0.49243244274871189603 0.67817919937549198117 1.0264987888606760258 -0.64597883289800206441 -0.32468383208595275047 -0.46444272164153588278 0.65676524419732928983 0.61418280168496941496;-0.089511700819245670901 -0.22284602921628804406 0.54095881900267173137 0.92580606356486949693 -0.10142089270115973998 -0.69751895760651050349 -0.78988337928726937154 0.92972799751212775732 -0.78827985005928846718;-0.27013610096827561646 -0.35858227700480849176 -0.85512135946649825424 0.71093495916316984395 0.96174362080054176527 -0.89937527377232950876 0.016541079688052347935 -0.25563464150045972501 0.75912762824794610683;-0.2398798844935764174 0.30882860668017542149 0.98921489532994266725 0.049338764800024324797 -0.70669299113851302696 -0.35371064968633192382 0.58443135335092921689 0.88168050643844408931 0.9677785421610946015;0.93890787541007192374 0.3795221471838451377 -0.16894731053079309335 0.04451822965119751202 0.2638634410733235458 -1.270576776585812695 -0.7634918854334267202 -0.27501418172861352707 0.64442833676365185447;-0.87457518068279194168 -0.78663902397372598152 -0.039068306316774860376 -0.34679517211828619905 -0.34585323034487880367 -0.88260927748681972105 -0.64233883997944807298 0.85947596678705351358 0.50848036865306378562;-0.65103921849215251605 -1.2229810559619240795 0.11946942849972777556 0.54261512539739775729 0.30301904605828294814 -1.0074525680373243031 0.37559901326925804188 -0.49211704252149096606 -0.30929930344087197547];

% Layer 2
b2 = [1.5708258360227485007;-1.2217534280176931549;0.87268102001263814227;0.52360861200758279654;0.1745362040025275896;0.1745362040025275896;-0.52360861200758279654;0.87268102001263814227;-1.2217534280176931549;-1.5708258360227485007];
LW2_1 = [-0.47777975674924011429 0.28387115052117056768 0.27856459990122961479 -0.48578099290149601153 -0.52451843162135347587 -0.36707804169108126935 -0.22793115332154492703 0.19859364073105212345 0.39946735469332617097 0.4437452375939789917 -0.50487696307782492511 0.31932951192405556462 -0.27132786581163381712 -0.2348465530669518464 0.17524787700670640955 0.37689310814678922412 0.071806987665415808464 -0.34141917901571811056 0.44807203883556989688 0.080114080002840343253;0.343061968060620337 0.10843509016713305526 -0.14803667176593379717 -0.5126518391809684605 -0.63962534641348967046 -0.27686212560737238908 -0.0097396800872749690614 0.046557089910976907909 0.34550124380148811154 -0.40990169752737526387 0.59156653103463219256 0.02990769599205461704 0.013042691487619393134 0.12382854591150732615 0.044267632002321290197 -0.18177042077018878974 -0.35313017880676278448 -0.51619493086495060741 0.68577721197494878602 -0.12285572688224732918;-0.55469487557143193346 -0.45545155355567079614 -0.52976210829870373775 0.093449994261754154579 0.20309837001306380033 -0.34668238202613615995 -0.35882486625292864257 -0.29044775829121588506 -0.44660618703175553046 0.26370877982828477837 0.037530200284484088735 -0.17062958822564538997 -0.55423385332425501026 0.42526402432651083663 -0.11546072522660665027 0.34849157123216506493 -0.3813057411250274642 -0.27997194144386761128 0.26456311419339439972 0.26896300715367910117;-0.077812176081463652055 0.029214413388651282871 0.61645321235173144991 -0.15718491101011594635 -0.30836706574838868011 0.30406213637130885541 -0.32324679479242551805 0.19837215335132157845 -0.37249540248292334343 0.49508238814942762129 -0.15553429113206948542 -0.47541194501425176888 -0.26168729508451499255 0.25028326250383359231 0.25267060011359709915 -0.078544041749261939156 -0.64396553331104311457 -0.44375833057839925155 -0.48998898481722963361 0.1938485249284510048;-0.2150443393789538693 -0.39677570763693237321 -0.41366438117570752953 0.44480016715465997557 0.29429519048645391699 -0.5037827465968064411 0.36721921011308961136 0.026313450982133945732 -0.20951613081500319868 0.61032944804304800623 0.51493213646973412523 -0.14764156960101934568 0.51486523376632031823 -0.064815711446655877026 -0.024068592170076400644 -0.1152175580075336242 0.16235190150587000546 -0.35220304953242204116 -0.19279829768725284533 0.4948071795463143685;0.24980157337075756252 0.58792386569015775422 0.3241257839143875108 -0.30527861389092525446 0.039270437511416969589 -0.082473024992907956188 -0.14963047847292029746 0.27885746348566731179 0.13591911724227584424 -0.12162715023534551029 0.1809189068003778933 -0.59829222367725676257 0.46565798974725086667 0.44162930958089841038 -0.55151787113881967084 0.17739414275956899569 -0.051695340594689415115 0.54084256798184471293 0.2370397919611391957 0.47943029336053416545;-0.046632205942978802171 -0.54679248285441617305 -0.3725803118564103289 0.20999969915224780959 0.44045208391670742643 0.32576691217313652471 0.5580151428954810422 0.36543014596297335173 0.46166872506851969193 -0.35062353266896789661 0.030747349637743209144 0.01875780779273953161 -0.24305781742327961514 0.15261375175761818235 -0.33981835794234938053 0.43406214427467948447 0.16976592260798079037 -0.56306548165038794451 -0.24855145964243835488 -0.32727873354459902089;0.14040465145628633348 0.19922451042359962115 -0.19563028769596585432 -0.6131381506475092058 0.096102241400128157744 -0.078173581898761265729 0.64064408440122055932 -0.11894307079404714544 0.50408063784214307557 -0.50758241324298247754 0.032459342234609708799 -0.29943265732455176531 -0.47574733425412102372 -0.406333303277325808 0.10918272415321476909 -0.064188000627677613275 -0.41042521784601421198 -0.054219771398794969208 -0.47712251199562000226 -0.38077918279812333902;-0.14865766251380671537 0.54701069917912603646 0.0029407948014052651131 0.44633875920966120665 -0.55059902621962508729 0.3299561081293540532 -0.58917927915500678537 -0.096485873789985646121 0.51498968676628242847 -0.032868761094836593251 0.44681719130159819331 -0.51588286780400105513 -0.11251340814874757901 0.036917069792329157418 0.41642238650171536918 -0.43585144256719093869 0.20856579527221696946 0.093524967642604525664 -0.10540596116345296585 -0.075141736518048077298;-0.038184351322452424193 -0.086419490403778470577 -0.36452729645795428626 0.1822303286844171033 0.40572411106219424815 -0.44369668208897383721 0.034165588649130600174 -0.51755507852072279995 -0.43772869616078002863 0.29641927313018529011 0.51204490690607362691 -0.40878298369049109739 0.13845053734229609277 -0.17469817957611316617 0.49782204030460519562 -0.39489636486886420252 0.36137117243839100844 0.10314715202753964307 -0.16973264379591840312 0.57420394964874921229];

% Layer 3
b3 = [1.8889959867429886309;-1.690154303927936974;-1.4913126211128857612;1.2924709382978341043;1.0936292554827828916;-0.89478757266773145673;-0.6959458898526800219;-0.49710420703762858707;0.29826252422257715224;-0.099420841407525717415;0.099420841407525717415;0.29826252422257715224;-0.49710420703762858707;-0.6959458898526800219;-0.89478757266773145673;1.0936292554827828916;1.2924709382978341043;-1.4913126211128857612;-1.690154303927936974;1.8889959867429886309];
LW3_2 = [-0.098722669418403935504 0.30107620026999909468 0.69965657668760450338 -0.062846390607334406964 0.44499200711900593896 -1.0732184945794576159 0.70267874764615767536 1.0361509082856001918 -0.16311954611960624573 0.17508244635685640822;0.99236992168724902363 -0.7341963001379939735 0.025777900305176459916 -0.5972208643216955215 -0.72470964039104457388 -0.49774746616124443399 0.29911024523007134768 -0.88403270462999083978 -0.20655541150465170364 0.022886803521269812739;0.32735650350102590833 -0.13550374178747076614 -0.17290181464347958995 0.41325258764808192602 -0.54790959933406124804 -0.87442809034580737393 0.8393513601467961216 -0.83505468598237286848 -0.52837706033322417998 0.70446489502845210939;-0.15276892507245451447 -0.47402961571992113798 0.5153849336402723802 0.28249826408627548568 -0.24061454795133760398 0.82458404572449373049 -0.56302458271173394522 0.79371941471648066457 0.66333460330283866568 -0.92195570540285265437;-0.70024401597548413534 0.056704046586832521082 -0.8451087625125724978 -0.33393485665470040713 -0.32029088827239621251 0.38882449693937010116 0.70582182081097311066 0.53296926529699550912 0.69813252903357903012 -0.85183745341958394537;0.84227437603941801569 -0.78607690312904254792 -0.65661043019094222917 -0.036183496481988014493 -0.18559196104476022304 0.7588116575963580468 -0.80485935291766408373 -0.059226903108072881388 -0.71369866688773786478 -0.19391909255063943807;0.74211857224963218016 0.48412584390724988648 0.30662071027015441738 0.58491676017315474834 -1.2889947718770964347 -0.21615732653279792763 -0.16189199214151833717 0.057388868657562271125 -0.11981124723808786459 0.77133352549073053162;0.17838346772911842231 1.0143279473774471366 -0.059245189515966280303 0.51314938646047658644 -0.15112031544906939784 -1.0663228756814722153 -0.23917986065053792322 0.88150935112845785202 -0.46958287096478062983 0.16166652937846798244;-0.19255429380203792356 -0.29696701543957271241 0.87613627866686516477 -0.34843687483995966492 -0.83463590101031004398 -0.21303557615334922648 -0.81134384720447216832 -0.24736561123887976232 0.50389258641058476407 0.9157721727831648062;0.37388896765376317122 -0.092957732726611008722 0.8554550223480963389 -0.45692151742987680008 0.28597162744482956809 0.23538514651394104593 -0.42041561102257440918 0.82680402714214440429 -0.94440687233842923742 -0.76801478153770208479;0.2777370569320484206 0.20275260830680044699 0.71943073961160453056 0.73721438381560600028 0.71986030222510777321 0.62030522122389675221 0.60282886236426891369 -0.68160651724898169146 -0.49303285028158505554 -0.64416210137680984804;0.089270744852822700444 -0.020555992803233707339 -0.62846182898929270344 -0.8790441351937924308 0.34465894991930529079 0.76496418459171844351 0.21064518766680137563 0.48323751647398077713 0.61838765419624908137 1.0138924905256130327;-0.80090869856470425781 -0.34483165515323349615 -0.33424355995268917319 -0.46835830087385588172 0.058593038005666585322 0.6703227727290335114 0.72939996044947807974 0.84147591657774267748 0.50533449530722762688 -0.72706893232908986757;-0.42766051459542631097 -0.41610701391470750199 0.17326094859581947505 -0.5238221310672589448 0.21835904829230262658 -0.71141287481725690167 -0.96757261140231742846 -0.50811331684718152868 -1.0719527830961903536 0.10300811203989113096;-0.19365300164828364027 0.73801794156302558125 0.54548199635855021405 -0.91772871719691839765 -0.84264598236865495551 -0.043451867135164384814 -0.51209226727333057028 -0.59506798417188688788 0.70382879070236070707 0.1506571774823297627;0.63373696049921401929 -0.72246137871764315452 0.79349652754693766887 0.53965943753051714982 -0.17090045665039715894 -0.51155634457170506835 -0.83840188043044383548 0.4802197259115628114 0.1780947342768897379 -0.68390095697331743096;0.23219865305378395437 -0.58642266408981458259 -0.43337903351063489232 -0.41764133760222538205 -0.44513815245492754924 -0.63367431104916027707 -0.71667124235887480488 0.94902126604475489646 -0.79285522671414676577 -0.40704650609013270923;-0.81185397705237971611 0.40437304812629581985 0.65583510850897863698 -0.10058703191558047985 0.75173963877686800217 0.58399476083545553973 -0.69813795005050172104 0.8592095755637350063 0.416128293377780345 -0.021934937874492792254;-0.5274740667201540667 -0.72104280468922066216 0.67102115140059770404 -0.97361070969208041159 -0.54391545253049489173 -0.59841215809859626962 0.45440105861949892097 -0.1752122539554159808 -0.58751686690618698528 0.36836146059140040254;0.12681829035391245508 -0.84646229274930373521 0.94200016251699469905 -0.3887647601248573892 0.14707421324540725927 0.68049199438128349371 0.38780926633604034803 0.90245885062182362724 -0.26137787862595018851 -0.52855995217562923294];

% Layer 4
b4 = [-0.81946531924244880862;-0.025853240328053583852];
LW4_3 = [-0.21125107129013365181 0.5787735752232945341 -0.16110430525059427076 0.52766525534341801595 0.38280072002529808017 -0.6791481712797229342 -0.49319353521175668398 -0.1183783391092483317 -0.37930620406039827763 -0.5840320451023395254 0.97864194881330135445 -0.84868493584229232063 0.049557682654338242045 -0.6152034653843063694 -0.43442420814056426082 0.13380552084916219613 -0.55944087830682698304 -0.27197052656266507142 -0.50494537351021939742 -0.21120437094011768053;0.38094847674956122674 -0.087810971906338020077 -0.46170323355671727406 -0.78264232581249681964 -0.86119003821161155265 0.98181445208513840051 0.00011430180604254935872 -0.51782152598373887287 0.1689919294876507383 0.19110300111577238624 0.3619798855507301294 -0.53042480941871517075 0.3374475574524780086 0.93834283820457109471 -0.69117530010651950789 -0.46044097388765581336 0.60661174112150706428 -0.73411161840389094202 0.25896334310186719385 -0.27364175009510027792];

% Output 1
y1_step1.ymin = -1;
y1_step1.gain = [1;1];
y1_step1.xoffset = [-1;-1];

% ===== SIMULATION ========

% Format Input Arguments
isCellX = iscell(X);
if ~isCellX
  X = {X};
end

% Dimensions
TS = size(X,2); % timesteps
if ~isempty(X)
  Q = size(X{1},2); % samples/series
else
  Q = 0;
end

% Allocate Outputs
Y = cell(1,TS);

% Time loop
for ts=1:TS

    % Input 1
    temp = removeconstantrows_apply(X{1,ts},x1_step1);
    Xp1 = mapminmax_apply(temp,x1_step2);
    
    % Layer 1
    a1 = tansig_apply(repmat(b1,1,Q) + IW1_1*Xp1);
    
    % Layer 2
    a2 = tansig_apply(repmat(b2,1,Q) + LW2_1*a1);
    
    % Layer 3
    a3 = tansig_apply(repmat(b3,1,Q) + LW3_2*a2);
    
    % Layer 4
    a4 = repmat(b4,1,Q) + LW4_3*a3;
    
    % Output 1
    Y{1,ts} = mapminmax_reverse(a4,y1_step1);
end

% Final Delay States
Xf = cell(1,0);
Af = cell(4,0);

% Format Output Arguments
if ~isCellX
  Y = cell2mat(Y);
end
end

% ===== MODULE FUNCTIONS ========

% Map Minimum and Maximum Input Processing Function
function y = mapminmax_apply(x,settings)
  y = bsxfun(@minus,x,settings.xoffset);
  y = bsxfun(@times,y,settings.gain);
  y = bsxfun(@plus,y,settings.ymin);
end

% Remove Constants Input Processing Function
function y = removeconstantrows_apply(x,settings)
  y = x(settings.keep,:);
end

% Sigmoid Symmetric Transfer Function
function a = tansig_apply(n,~)
  a = 2 ./ (1 + exp(-2*n)) - 1;
end

% Map Minimum and Maximum Output Reverse-Processing Function
function x = mapminmax_reverse(y,settings)
  x = bsxfun(@minus,y,settings.ymin);
  x = bsxfun(@rdivide,x,settings.gain);
  x = bsxfun(@plus,x,settings.xoffset);
end
